// Auto-generated by `python -m pinn.train`. Do not edit by hand.
#pragma once
namespace synfuel {
constexpr int IN_DIM = 5;
constexpr int H1 = 64;
constexpr int H2 = 64;
constexpr int OUT_DIM = 6;
constexpr float IN_LOWS[5] = {2.00000000e+00f, 1.50000000e+01f, 4.70000000e+02f, 5.00000000e-01f, 5.00000000e+03f};
constexpr float IN_HIGHS[5] = {4.00000000e+00f, 3.50000000e+01f, 5.40000000e+02f, 3.00000000e+00f, 8.00000000e+04f};
constexpr float OUT_MEAN[6] = {7.79364471e+01f, 2.25337326e+02f, 1.56810117e+00f, 1.57440964e+02f, 7.79364319e+01f, 5.24588440e+02f};
constexpr float OUT_STD[6] = {3.28559265e+01f, 7.91284409e+01f, 9.51303840e-01f, 7.31666718e+01f, 3.68679924e+01f, 2.46185532e+01f};
constexpr float W0[64][5] = {
  {-4.58483510e-02f, 2.57755309e-01f, -4.06743884e-01f, -3.12291443e-01f, -1.88889921e-01f},
  {1.08272456e-01f, 1.87983021e-01f, 4.74418610e-01f, 2.39168364e-03f, 1.30695760e-01f},
  {-1.54072568e-01f, -2.24877730e-01f, -4.78202105e-01f, -5.96814394e-01f, -7.75456652e-02f},
  {1.96310118e-01f, 1.47196695e-01f, 4.84214276e-01f, -3.49306583e-01f, -2.92502016e-01f},
  {1.11588761e-01f, 5.31078815e-01f, -5.60569726e-02f, 5.26393831e-01f, -2.25726902e-01f},
  {9.73361880e-02f, 6.52295709e-01f, -4.50516015e-01f, -4.43833739e-01f, 1.76429272e-01f},
  {-2.03874126e-01f, 4.58832622e-01f, -3.56347561e-01f, -1.41565472e-01f, -7.82089710e-01f},
  {-4.55226213e-01f, -1.04199968e-01f, 4.28547412e-01f, 1.57920718e-01f, 1.53647184e-01f},
  {8.46512243e-02f, -4.04495627e-01f, 3.36588204e-01f, -5.53948879e-01f, -3.28291416e-01f},
  {-3.14910203e-01f, 4.09566551e-01f, 2.39479333e-01f, -7.17689693e-02f, -7.77883455e-02f},
  {1.50337607e-01f, 4.97142792e-01f, 3.65032315e-01f, 2.01814309e-01f, 2.88798660e-01f},
  {-1.58505067e-01f, 1.13533445e-01f, -3.91989350e-01f, -4.80803579e-01f, -3.80177915e-01f},
  {1.98219687e-01f, 2.15691715e-01f, -1.82728246e-01f, 3.25547487e-01f, 5.11563361e-01f},
  {-1.32872071e-02f, 1.66344464e-01f, 3.92787308e-01f, 8.54860246e-01f, 8.21151018e-01f},
  {-3.99170130e-01f, -2.37550288e-01f, 2.39189845e-02f, 7.70207942e-01f, 5.13154030e-01f},
  {2.43415877e-01f, -1.17460765e-01f, -4.87735450e-01f, -4.88503315e-02f, -4.73037452e-01f},
  {-9.02710557e-02f, 4.33523387e-01f, 3.43314111e-01f, -8.04106116e-01f, 9.00015980e-02f},
  {8.31980258e-02f, -7.15959072e-02f, -3.21607500e-01f, 1.83631644e-01f, -4.23805684e-01f},
  {1.18458942e-01f, 1.64704680e-01f, 6.00427032e-01f, 5.47314286e-01f, -6.55047894e-01f},
  {-2.62273312e-01f, 4.17301506e-01f, 2.87405163e-01f, -4.70691502e-01f, -3.65840822e-01f},
  {3.90209287e-01f, 7.57119834e-01f, -2.70985723e-01f, -3.50577198e-03f, -6.09159291e-01f},
  {9.40587893e-02f, -5.23526907e-01f, -4.44569319e-01f, -2.05490828e-01f, 1.26989737e-01f},
  {-3.17776762e-02f, 3.08459461e-01f, -6.38814628e-01f, 4.13111180e-01f, 3.71153444e-01f},
  {-1.67480558e-01f, -2.18392059e-01f, -7.97078758e-03f, 1.06832884e-01f, 3.86877984e-01f},
  {-1.38817281e-01f, 3.41656923e-01f, -3.73533279e-01f, 3.16022485e-01f, -1.32020628e+00f},
  {-2.93672271e-02f, 6.54899254e-02f, -3.47494513e-01f, -2.25149058e-02f, -7.59260595e-01f},
  {-2.83221364e-01f, -5.65706845e-03f, -3.48975331e-01f, -1.87039584e-01f, 6.57308400e-01f},
  {4.69827913e-02f, -2.59289265e-01f, 1.00343630e-01f, -1.49585322e-01f, 8.17269564e-01f},
  {2.40648896e-01f, 4.67053354e-01f, 4.07412380e-01f, 2.79620230e-01f, -8.73809814e-01f},
  {-1.72054127e-01f, 5.61963499e-01f, -5.98122962e-02f, -4.75188911e-01f, -6.26386762e-01f},
  {-8.03550422e-01f, -7.28805780e-01f, 2.67599095e-02f, 3.36923748e-01f, 2.06598088e-01f},
  {-4.63751405e-01f, -1.08902799e-02f, -2.48887390e-01f, -1.04528837e-01f, -6.30424857e-01f},
  {-1.10794768e-01f, -2.51248896e-01f, -3.10311139e-01f, -6.62581325e-01f, 9.71096903e-02f},
  {-5.16960658e-02f, -4.25411016e-01f, 1.29454195e-01f, -4.78116304e-01f, 2.29862645e-01f},
  {7.44966447e-01f, -4.62164760e-01f, 5.24391890e-01f, 2.66205907e-01f, -7.00690806e-01f},
  {3.46791238e-01f, -2.56986469e-01f, -7.46947974e-02f, 6.57596946e-01f, -5.01672447e-01f},
  {4.58901078e-02f, -1.01667076e-01f, 2.99195290e-01f, 4.58425023e-02f, 6.39512599e-01f},
  {3.32623124e-01f, -2.77447373e-01f, -1.16612144e-01f, -5.55585921e-01f, 8.01467657e-01f},
  {2.47959957e-01f, 1.35638028e-01f, -4.41023171e-01f, -1.54855013e-01f, -3.62441212e-01f},
  {-1.15556300e-01f, -5.05252063e-01f, 1.32330075e-01f, -3.02949756e-01f, 3.82231116e-01f},
  {3.00831616e-01f, 8.91053453e-02f, -3.53457212e-01f, -6.22121572e-01f, -4.51275371e-02f},
  {2.37262011e-01f, -2.82918245e-01f, 4.69580472e-01f, 1.31319955e-01f, 1.76251441e-01f},
  {9.04477388e-02f, -4.88272728e-03f, 7.83643201e-02f, -1.13649979e-01f, -1.90395713e-01f},
  {-1.60213023e-01f, -4.96478558e-01f, -1.69365674e-01f, 7.14357674e-01f, -5.38989425e-01f},
  {-5.75924590e-02f, 8.06922257e-01f, 1.06837310e-01f, 3.33799750e-01f, -6.16788745e-01f},
  {2.30066672e-01f, -5.05634010e-01f, -1.64033249e-01f, -1.79238781e-01f, 1.76625937e-01f},
  {3.87506485e-02f, 4.04404521e-01f, 3.05290967e-02f, 9.60173607e-01f, -4.69907448e-02f},
  {-3.12940359e-01f, 3.76473218e-01f, -5.12202322e-01f, -4.18371320e-01f, 3.97944033e-01f},
  {1.56244695e-01f, 5.40231466e-01f, -4.14721638e-01f, -2.24236414e-01f, 4.70791072e-01f},
  {-4.79583293e-01f, 3.08756232e-01f, -3.58092934e-01f, 1.24616630e-01f, -4.46621269e-01f},
  {-3.25788498e-01f, 1.73254296e-01f, 4.60775465e-01f, -4.77287062e-02f, -5.63283324e-01f},
  {-5.42654216e-01f, -7.80571938e-01f, 5.41401625e-01f, -7.65011162e-02f, -7.88286746e-01f},
  {-3.92934412e-01f, 4.77842361e-01f, 3.38603973e-01f, 2.52116293e-01f, 7.89050758e-02f},
  {-1.70306310e-01f, -1.60398617e-01f, -7.12068975e-02f, 4.12131250e-01f, 3.98220532e-02f},
  {-3.38359714e-01f, -3.31175357e-01f, -5.38876116e-01f, -2.41104756e-02f, -1.39723569e-01f},
  {-2.86362201e-01f, 5.43163598e-01f, -4.67408597e-01f, -2.77651936e-01f, 4.12365407e-01f},
  {4.12316509e-02f, -2.99841493e-01f, -3.79936963e-01f, 2.73318380e-01f, 3.17857057e-01f},
  {6.73274398e-01f, -2.88008511e-01f, 1.77695170e-01f, -3.74363735e-02f, -1.69074148e-01f},
  {-1.20347083e+00f, 1.36300325e-01f, 2.85281271e-01f, 3.52475435e-01f, -9.72481593e-02f},
  {-4.26630005e-02f, 7.78792143e-01f, -5.12902796e-01f, 5.17774522e-01f, -2.13164940e-01f},
  {-1.32704377e-01f, -6.89150989e-02f, -1.87022343e-01f, 1.15499236e-01f, 3.59461755e-02f},
  {-8.38282406e-01f, 2.05595016e-01f, 2.36594528e-01f, 2.92222738e-01f, -3.25371921e-01f},
  {-4.19634819e-01f, -3.55151027e-01f, 8.68235677e-02f, -1.89702183e-01f, 2.10110888e-01f},
  {3.60852599e-01f, -4.37051386e-01f, 2.66296659e-02f, 3.04478645e-01f, 7.22691715e-01f}
};
constexpr float B0[64] = {-2.21938416e-01f, 1.52727425e-01f, -5.74204028e-01f, 4.35074925e-01f, 2.82286346e-01f, 3.71672809e-01f, -5.53645380e-02f, 5.51000774e-01f, 4.87013251e-01f, -3.14101726e-01f, -3.76392215e-01f, -8.63926768e-01f, 7.47259378e-01f, 7.75580227e-01f, -1.27363428e-01f, 1.48166910e-01f, 8.20060432e-01f, 8.06532383e-01f, 3.64388227e-01f, 2.83687890e-01f, -2.64181554e-01f, -1.11633815e-01f, 8.59997332e-01f, 5.23897529e-01f, -1.25725138e+00f, 7.17856765e-01f, 1.82247415e-01f, 7.06605017e-01f, -2.74807960e-01f, -2.64351428e-01f, -1.47987023e-01f, 4.90552783e-01f, -4.51644301e-01f, -4.67973612e-02f, 3.03669810e-01f, 2.96936244e-01f, -2.11090147e-01f, 2.25744098e-01f, -7.90524006e-01f, 6.77020475e-02f, -9.79352951e-01f, -5.27338326e-01f, -8.27262640e-01f, 5.25955439e-01f, -1.04786761e-01f, 4.49410558e-01f, 6.59013033e-01f, -8.41905653e-01f, -7.24776506e-01f, -3.56690317e-01f, -2.89941639e-01f, 6.08051181e-01f, -3.08449686e-01f, -1.16563067e-01f, -4.13857192e-01f, -7.65903354e-01f, 5.97735107e-01f, 8.15429628e-01f, 4.42060769e-01f, 2.65406817e-01f, 6.30693555e-01f, -1.37774013e-02f, 2.22002596e-01f, 6.01103544e-01f};
constexpr float W1[64][64] = {
  {8.36326852e-02f, 1.69783667e-01f, 5.41650914e-02f, 7.61405528e-02f, -1.04954103e-02f, 1.71084508e-01f, 1.61112234e-01f, -4.07114513e-02f, -9.78100002e-02f, -2.26386920e-01f, 5.38214750e-04f, -3.01942751e-02f, 1.43397987e-01f, 1.24159837e-02f, -1.96265608e-01f, 1.79330900e-01f, 1.02248341e-02f, 3.84018533e-02f, -3.75604443e-02f, 8.42214599e-02f, 3.13638262e-02f, -5.44714332e-02f, 1.77105814e-01f, 8.59535038e-02f, -1.82330668e-01f, 6.08763807e-02f, -4.01948765e-02f, 1.32613450e-01f, 1.23627163e-01f, -8.03203583e-02f, -1.50589153e-01f, -5.18628955e-02f, 5.82857989e-03f, -3.92463207e-02f, 1.25443637e-01f, 2.51661003e-01f, -1.52150035e-01f, 1.84687357e-02f, -8.04501679e-03f, 4.59017436e-04f, 4.11011539e-02f, -2.03029975e-01f, -1.56805873e-01f, -1.23293854e-01f, -1.71255603e-01f, 1.89074799e-01f, -1.05560273e-01f, -6.67912811e-02f, 1.40239179e-01f, -1.69154212e-01f, -1.67947888e-01f, -1.18090428e-01f, -1.03572898e-01f, -2.05603242e-01f, -2.76257638e-02f, -2.60431349e-01f, -3.32429670e-02f, 8.56074020e-02f, -4.27537076e-02f, -1.15822977e-03f, -6.01927601e-02f, 1.76759958e-02f, -1.07419029e-01f, 1.95910767e-01f},
  {3.78486589e-02f, -1.51486427e-01f, 7.31202736e-02f, 1.36674778e-03f, 1.75314635e-01f, 1.75286923e-02f, -8.11412930e-02f, 3.86594497e-02f, -5.87584972e-02f, 2.61242032e-01f, -5.69701903e-02f, 4.23218124e-02f, -2.13615105e-01f, -4.18948904e-02f, 2.04546675e-01f, -1.18574455e-01f, 1.63883101e-02f, -5.72936609e-02f, 3.29752709e-03f, -1.74606040e-01f, -2.19102409e-02f, -8.73571038e-02f, -2.32468285e-02f, -9.91520123e-04f, 1.33961409e-01f, -7.27383643e-02f, 4.70851324e-02f, -1.82396129e-01f, -1.82940796e-01f, 6.92072734e-02f, -6.02876768e-02f, 6.41135722e-02f, -1.13086857e-01f, -8.99852440e-02f, -1.74418986e-01f, 4.75405231e-02f, 6.15042308e-03f, 4.59336042e-02f, 1.74723595e-01f, 1.88045837e-02f, 9.11651254e-02f, 2.06927210e-02f, 1.16459250e-01f, -5.46442717e-02f, 1.88738793e-01f, -2.18726471e-01f, 1.45014346e-01f, 9.06803310e-02f, -1.59212435e-03f, 5.16183898e-02f, 2.12117985e-01f, 3.51003669e-02f, -3.31206806e-02f, 1.19141594e-01f, 9.86947641e-02f, 1.77337214e-01f, -2.15907674e-02f, -2.61226445e-01f, -6.61108792e-02f, 4.04485464e-02f, -1.19307719e-01f, 2.59793103e-02f, -7.32278675e-02f, -1.23276919e-01f},
  {-7.69052505e-02f, -5.39387576e-02f, -6.70029446e-02f, -6.33477569e-02f, 3.13535668e-02f, 1.07893296e-01f, -3.98254655e-02f, -2.95347907e-02f, 2.04282939e-01f, -2.23037213e-01f, 2.37505749e-01f, -2.07030594e-01f, -5.39071746e-02f, -6.29041949e-03f, -2.31311858e-01f, 1.60863906e-01f, -1.46319736e-02f, 3.73841971e-02f, 2.28721991e-01f, 4.34281101e-04f, 1.36554465e-01f, -1.26197338e-01f, -7.04112500e-02f, -8.11455473e-02f, 2.65812129e-03f, -1.49750873e-01f, -7.98539221e-02f, 3.03199813e-02f, -4.95740063e-02f, -1.61989942e-01f, -4.50624138e-01f, -1.70671731e-01f, -6.95906281e-02f, 7.87889883e-02f, 9.14396252e-03f, 9.48402584e-02f, 1.14105931e-02f, 1.40384525e-01f, -7.23933503e-02f, -2.36288905e-01f, -2.50227079e-02f, -3.28553170e-02f, 5.07585108e-02f, 1.86326712e-01f, -1.38363078e-01f, 1.81076035e-01f, 2.33257964e-01f, -1.18253238e-01f, -2.46208414e-01f, -2.15996593e-01f, -2.42279798e-01f, 1.60922125e-01f, -3.48077118e-01f, 6.25369996e-02f, -2.30487734e-02f, -1.38508350e-01f, 2.61601835e-01f, 2.25370884e-01f, 9.51741263e-02f, -2.68531572e-02f, -1.16468698e-01f, -2.55190343e-01f, -1.34265140e-01f, 3.13152194e-01f},
  {-1.68866247e-01f, 2.10498795e-01f, -1.13707572e-01f, 3.21693242e-01f, -4.42243479e-02f, -2.20816761e-01f, -2.28121191e-01f, 1.62878811e-01f, 3.82480137e-02f, -1.66760221e-01f, 8.28552619e-02f, -2.69784957e-01f, 6.16552234e-01f, 5.48819005e-01f, 2.97197001e-03f, -1.75157413e-01f, 1.05681345e-01f, 3.46429974e-01f, 3.28676216e-02f, 1.40855417e-01f, -5.19221485e-01f, 6.97344244e-02f, 3.19868565e-01f, 4.22067046e-01f, -8.38409483e-01f, 2.91985929e-01f, 4.01052050e-02f, 6.77542508e-01f, -1.52252123e-01f, -2.56636828e-01f, 4.70076621e-01f, 6.66619316e-02f, -1.36470988e-01f, 5.79085127e-02f, -1.31470755e-01f, -3.51049632e-01f, 6.18154518e-02f, 9.02654305e-02f, -4.14134920e-01f, 2.74669111e-01f, -1.50921345e-01f, -2.73447901e-01f, -3.10092390e-01f, -2.41707638e-01f, -1.38062641e-01f, 2.41465151e-01f, 1.41425565e-01f, -2.38310754e-01f, 9.69512686e-02f, -5.03413856e-01f, -3.61331627e-02f, -5.99837840e-01f, -1.57703429e-01f, -2.94225495e-02f, -3.24119359e-01f, -1.81638777e-01f, 2.49198437e-01f, 4.71934199e-01f, -4.29312997e-02f, -8.75548646e-02f, 2.90983856e-01f, -2.16181010e-01f, 3.58518213e-02f, 4.25410807e-01f},
  {-5.13118990e-02f, 1.53583229e-01f, 1.38339505e-01f, 2.34478548e-01f, -2.54840344e-01f, 3.15527730e-02f, -3.89138535e-02f, 3.70712131e-02f, -3.95878144e-02f, 2.75069177e-01f, 1.16908774e-01f, 7.69685507e-02f, -1.15222320e-01f, -1.24865562e-01f, -2.07991764e-01f, -2.81073153e-01f, 1.13968790e-01f, -7.33291656e-02f, -1.02324113e-01f, 2.33507991e-01f, -6.08829893e-02f, -5.52367046e-02f, -2.73429722e-01f, -3.00579578e-01f, -1.37391374e-01f, 1.17437713e-01f, -6.80738986e-02f, 7.24849850e-02f, 4.85800626e-03f, 4.55292970e-01f, -2.23022997e-01f, -6.14731014e-02f, 7.77345896e-02f, 2.04477608e-01f, -7.04088900e-03f, -9.39347446e-02f, -5.40502369e-03f, 8.80899876e-02f, 1.78066701e-01f, 1.01675726e-01f, 2.88504809e-01f, 7.67093664e-03f, 1.51456192e-01f, -3.13232690e-01f, 1.67284645e-02f, 1.27915993e-01f, -2.64238983e-01f, 4.60695475e-02f, 2.83193767e-01f, 1.46385059e-02f, 2.31093720e-01f, -2.62338668e-01f, 2.25129500e-02f, 3.13690118e-02f, -7.86382407e-02f, 1.96738224e-02f, -2.89853603e-01f, -1.80824980e-01f, -1.26397818e-01f, -3.33476424e-01f, -2.80115485e-01f, -7.05823228e-02f, -7.33392090e-02f, -1.83753714e-01f},
  {-1.75533220e-01f, -2.35007964e-02f, 1.00573972e-01f, 2.55156904e-02f, -1.24667265e-01f, -1.11233927e-01f, -1.65363908e-01f, 4.27384442e-03f, -2.96348631e-02f, -1.92529812e-01f, 6.20490536e-02f, 1.76170655e-02f, -7.87876397e-02f, -4.13693450e-02f, 2.20063910e-01f, -2.21221950e-02f, -3.33899669e-02f, -6.59357905e-02f, -9.36045200e-02f, -1.24076843e-01f, -1.89037502e-01f, 1.32784054e-01f, 3.48042510e-02f, -2.83795819e-02f, 1.01184517e-01f, -2.70170830e-02f, -1.01727955e-01f, 5.13829924e-02f, -6.98036999e-02f, -1.01871677e-01f, 5.54648489e-02f, 2.20618788e-02f, 5.06191887e-02f, -6.39671180e-03f, 8.19542110e-02f, -2.03642979e-01f, -3.71808782e-02f, -1.26352832e-02f, 4.04145643e-02f, 5.96217960e-02f, 2.43899003e-02f, 2.57559389e-01f, 1.72035336e-01f, -9.01649240e-03f, -1.43952727e-01f, 1.83579735e-02f, -1.67034984e-01f, -8.72965064e-03f, 4.16363738e-02f, -1.20853446e-02f, 8.34195092e-02f, 5.50943203e-02f, -9.49191079e-02f, 1.99330583e-01f, 1.26131112e-02f, -1.32839590e-01f, 9.21814367e-02f, 6.49947226e-02f, -9.66308564e-02f, -7.97256827e-02f, 1.26477974e-02f, 4.59435908e-03f, 2.36277841e-02f, 1.64746329e-01f},
  {1.12431217e-02f, -5.05962037e-02f, -8.41165800e-03f, -5.33880107e-02f, 5.11454269e-02f, 2.67426044e-01f, 1.41196340e-01f, 2.86543532e-03f, -2.71300729e-02f, 2.30248440e-02f, 1.82171091e-01f, 3.93646210e-03f, -9.74235535e-02f, 1.98878929e-01f, 1.41471609e-01f, -1.11857481e-01f, 4.54992205e-02f, 1.48321111e-02f, 6.53437385e-03f, -2.75541209e-02f, -3.95882018e-02f, -7.03178048e-02f, 3.17602530e-02f, 9.59765986e-02f, 2.60511488e-02f, 6.37127906e-02f, 3.21604572e-02f, 3.74823995e-02f, -1.18465818e-01f, 9.47926845e-03f, 3.09735984e-02f, 4.75462452e-02f, 1.54106300e-02f, -9.28751379e-02f, 3.57460119e-02f, -6.99351057e-02f, 3.23243067e-02f, 1.10974997e-01f, 4.71089035e-02f, 3.05783525e-02f, 4.43372466e-02f, -9.24190730e-02f, -1.59203783e-01f, 7.65880337e-03f, 8.59182999e-02f, -1.93634108e-01f, -7.36704655e-03f, 1.18658185e-01f, -7.86755383e-02f, 2.00655088e-01f, 5.77840582e-02f, 1.22676596e-01f, 2.38659278e-01f, -2.15882193e-02f, -3.48202176e-02f, 6.94575012e-02f, -6.65521100e-02f, -1.69155642e-01f, 1.88584719e-02f, 2.79508382e-02f, 1.11779176e-01f, 5.44574857e-02f, 1.47919223e-01f, -1.44860715e-01f},
  {-1.37383759e-01f, 1.80592820e-01f, -3.27647507e-01f, 2.18087837e-01f, 2.30571672e-01f, 7.41401464e-02f, -2.70577580e-01f, 2.54870504e-01f, 6.28687218e-02f, 2.20896900e-01f, 1.39495969e-01f, -9.92692783e-02f, 2.00619161e-01f, -6.26621069e-03f, 1.23174369e-01f, -2.60519445e-01f, 2.07382545e-01f, -8.60407948e-02f, 1.40217140e-01f, 2.00065672e-01f, 1.19271301e-01f, -2.12111622e-01f, 5.18468320e-01f, -1.20591909e-01f, 3.71077895e-01f, -3.94369423e-01f, 1.44879296e-02f, -3.11609983e-01f, 1.98871657e-01f, 1.65406942e-01f, -1.83314472e-01f, -3.53223711e-01f, -7.96789005e-02f, -2.31686711e-01f, 1.75140232e-01f, 1.07950736e-02f, 3.61463040e-01f, -1.41286746e-01f, -2.76394282e-02f, -1.89189404e-01f, -3.89045298e-01f, 9.47366208e-02f, -8.19781497e-02f, 8.99615735e-02f, 2.56570548e-01f, -3.00257038e-02f, 2.63749540e-01f, -2.29589671e-01f, -3.17093313e-01f, -5.80365807e-02f, 2.21288782e-02f, 4.15889382e-01f, 2.14726493e-01f, 1.27482355e-01f, -1.17444955e-01f, -3.20788324e-01f, -1.55783826e-02f, 1.84379712e-01f, 1.07393734e-01f, 4.17499214e-01f, 7.00016832e-03f, 2.75270432e-01f, -4.42522764e-02f, -4.48676422e-02f},
  {-1.25216976e-01f, 1.74752697e-02f, 4.25452814e-02f, 8.70538801e-02f, 1.00382671e-01f, 5.81922121e-02f, 1.21153541e-01f, 1.28268152e-01f, 2.06878334e-01f, 8.74992758e-02f, -8.32276866e-02f, -5.91633208e-02f, -7.96886683e-02f, -3.47211093e-01f, 1.22621186e-01f, -8.32331032e-02f, 1.43110633e-01f, -7.49993026e-02f, 1.74538627e-01f, 1.54669032e-01f, -9.62340906e-02f, -1.29197896e-01f, 7.24658370e-02f, 1.49005130e-01f, 2.48011827e-01f, -3.23282093e-01f, -1.44959852e-01f, 1.63836535e-02f, 1.41517431e-01f, -1.19772907e-02f, 1.14461570e-03f, -1.82682872e-01f, 8.02051798e-02f, 1.09988697e-01f, 1.86103329e-01f, -1.11858614e-01f, -9.28271282e-03f, 4.82585077e-04f, 9.37756896e-02f, 1.17259398e-01f, 4.06812280e-02f, -8.25645626e-02f, 2.80407462e-02f, 3.88824865e-02f, 8.67051408e-02f, -1.56220734e-01f, -1.01173855e-01f, -6.48677051e-02f, -1.54714391e-01f, 2.67033800e-02f, -5.48255220e-02f, -6.05372824e-02f, 1.52172223e-01f, -7.15026259e-02f, -6.14490323e-02f, -1.21150024e-01f, -9.48467180e-02f, -7.70917609e-02f, 1.92323923e-01f, 3.93430479e-02f, 4.42421176e-02f, 8.27184319e-02f, 1.41908497e-01f, 6.48703240e-03f},
  {-9.52723622e-02f, 5.11491261e-02f, 1.33758783e-01f, -1.11149304e-01f, -1.32764250e-01f, -5.35494350e-02f, 1.14276201e-01f, -5.53413257e-02f, 1.81428879e-01f, 2.82299966e-02f, 7.24981204e-02f, 6.28484180e-03f, 1.20161168e-01f, -3.29585493e-01f, 2.15846896e-02f, -6.27330989e-02f, 1.65038064e-01f, 6.79514045e-03f, -1.04899712e-01f, 1.75942212e-01f, 2.75287870e-02f, -1.39928296e-01f, 4.29925025e-02f, 4.06252816e-02f, 2.20271334e-01f, -3.61628503e-01f, -6.97066113e-02f, -2.18874142e-02f, -1.33174583e-02f, 2.71367311e-01f, -8.68380442e-02f, 1.36748552e-02f, 2.37063225e-02f, 9.52754989e-02f, 9.64223817e-02f, -5.19733988e-02f, 1.31270602e-01f, 2.00478286e-02f, -2.11076695e-03f, 7.61860684e-02f, -3.31174247e-02f, -6.09631352e-02f, -9.17673185e-02f, -1.10610709e-01f, 5.22256130e-03f, 1.19193085e-01f, -1.46679014e-01f, -1.29161090e-01f, -4.62697819e-02f, -7.96743110e-02f, 5.54099120e-03f, -6.41521960e-02f, 5.98436333e-02f, -1.06861837e-01f, -4.57151653e-03f, 2.72003394e-02f, 1.40344694e-01f, 9.75303277e-02f, -2.77045928e-02f, -2.20951326e-02f, 6.89087212e-02f, -7.56401494e-02f, -5.29121794e-02f, 1.17358543e-01f},
  {2.43357588e-02f, -2.79984832e-01f, 4.55197804e-02f, -1.52371019e-01f, -1.73463956e-01f, -5.16540259e-02f, 1.21000834e-01f, -8.99034515e-02f, -4.12750244e-02f, -2.19577551e-01f, -1.41118631e-01f, 9.50130373e-02f, -1.93425566e-01f, 2.99050249e-02f, 4.62760776e-02f, 2.79155552e-01f, -2.72623330e-01f, 1.21672697e-01f, -1.59886196e-01f, -2.34302208e-01f, -3.54337245e-02f, 1.47530258e-01f, -1.76664397e-01f, 8.52758512e-02f, -2.90704727e-01f, 2.21241802e-01f, 1.25446245e-01f, 7.76384175e-02f, -1.06348939e-01f, -8.35158378e-02f, 1.25303537e-01f, 4.98314127e-02f, 2.18591407e-01f, 1.29518583e-01f, -6.23424463e-02f, -1.20765373e-01f, -2.11172909e-01f, 2.36386806e-01f, 7.48408958e-02f, 2.24116161e-01f, 6.43512979e-02f, -8.93272236e-02f, 1.01977130e-02f, -1.60457328e-01f, -9.68907923e-02f, 2.47652024e-01f, -1.61634594e-01f, 1.24927171e-01f, 2.06756592e-01f, -1.01679936e-01f, -2.78792828e-02f, -3.03122938e-01f, -2.53544062e-01f, 6.53102295e-03f, 2.43635148e-01f, 1.12658396e-01f, 1.72874480e-01f, -1.07473098e-01f, -7.39543661e-02f, -1.18910439e-01f, 7.90249929e-02f, -4.79889922e-02f, 8.02579373e-02f, 1.24657683e-01f},
  {-6.02274053e-02f, -6.19622171e-02f, -1.41677141e-01f, 5.68461865e-02f, 3.02441213e-02f, 3.63332704e-02f, -1.20210268e-01f, -2.00433265e-02f, 1.00467660e-01f, -1.63375363e-01f, -8.38386193e-02f, -8.62424895e-02f, -8.48207101e-02f, 6.23108223e-02f, 8.53338614e-02f, 1.83797747e-01f, -1.05216689e-01f, 6.96077645e-02f, -6.12630025e-02f, -1.57467589e-01f, 4.66291904e-02f, 7.19990628e-03f, -1.08875342e-01f, -1.76685333e-01f, -3.66411842e-02f, 8.90891105e-02f, -1.32722691e-01f, -1.69600368e-01f, -1.31604029e-02f, -1.77595273e-01f, -1.47742912e-01f, -5.10798804e-02f, -8.11606050e-02f, -6.80928305e-02f, -4.23745699e-02f, 1.52685503e-02f, -1.22797780e-01f, 1.43178655e-02f, -6.98118359e-02f, -8.81140009e-02f, -7.12999562e-03f, -7.10496306e-02f, -5.59143275e-02f, 8.83094445e-02f, -3.66976485e-03f, 2.09998205e-01f, 7.86262825e-02f, -1.09317549e-01f, -2.16885023e-02f, -3.50560285e-02f, 5.96890263e-02f, -1.00299612e-01f, -1.33144096e-01f, 6.50436208e-02f, -1.15254059e-01f, -1.23086780e-01f, 7.92746767e-02f, -5.78418411e-02f, 1.11627439e-02f, -1.01123862e-01f, 7.16564944e-03f, -1.79920569e-01f, 6.53445274e-02f, -7.07275867e-02f},
  {-1.42958034e-02f, 3.46738403e-03f, 1.11757733e-01f, -4.68281545e-02f, -1.71730015e-02f, 1.97188020e-01f, 5.56835122e-02f, -1.32704005e-01f, -8.83127749e-02f, 7.86630437e-02f, 5.65103348e-03f, 1.38981313e-01f, 5.42213907e-03f, -2.29142070e-01f, -3.71935703e-02f, 5.78477643e-02f, 7.68391490e-02f, -1.65952131e-01f, -7.66379526e-03f, 1.31693155e-01f, 2.32589599e-02f, -1.23385414e-01f, -3.39096561e-02f, -1.04363151e-01f, 3.32596660e-01f, -9.04957578e-02f, -3.08545660e-02f, -2.28288606e-01f, 2.15829872e-02f, 8.08688775e-02f, 2.25922335e-02f, -1.71303138e-01f, -6.65616170e-02f, -9.19730216e-02f, 1.65954698e-03f, 7.79443160e-02f, 1.64793462e-01f, -1.13670774e-01f, 1.68990716e-01f, 2.57704463e-02f, 1.52411297e-01f, 1.10965967e-01f, 1.32500948e-02f, -2.09766030e-01f, 1.67692974e-01f, -4.75030392e-02f, 6.87994361e-02f, -4.55365591e-02f, 1.76223531e-01f, 1.39292195e-01f, 1.97247744e-01f, -2.09075853e-01f, -1.29571855e-01f, -2.07000405e-01f, -8.82988125e-02f, 1.00712679e-01f, -1.50024280e-01f, -4.09063250e-02f, -3.13899964e-02f, 2.72824597e-02f, -2.76998449e-02f, -2.19445959e-01f, -1.51902869e-01f, -1.63246453e-01f},
  {1.71013158e-02f, -2.02089846e-01f, 1.19555376e-01f, -2.19686240e-01f, -5.32674752e-02f, -1.77003711e-01f, -1.72179490e-01f, -1.12944767e-01f, -1.49954436e-02f, 4.50479146e-03f, -1.20193385e-01f, 2.16185465e-01f, -2.30918065e-01f, -2.10566014e-01f, 3.07807475e-01f, 2.00645551e-01f, -2.29930460e-01f, -1.42802700e-01f, -2.79862974e-02f, -3.29957098e-01f, -2.01940890e-02f, 1.68277100e-01f, -7.12146536e-02f, -2.14385420e-01f, -9.73683316e-03f, 4.50560562e-02f, -2.73171179e-02f, -2.13564217e-01f, -1.08275384e-01f, -2.17890978e-01f, 3.69215794e-02f, -1.46116197e-01f, 2.78034359e-01f, 6.27187639e-02f, 7.78756738e-02f, 1.41571358e-01f, 5.60388118e-02f, -4.78845946e-02f, 1.75857663e-01f, 1.48567155e-01f, 1.59096494e-01f, 1.97864547e-02f, 2.76510954e-01f, 1.56578466e-01f, -2.16301754e-01f, 4.36254777e-02f, -7.45059773e-02f, -2.60767322e-02f, 5.69916219e-02f, -3.65680270e-02f, -3.07482155e-03f, 9.55572650e-02f, 4.59401123e-02f, 2.62430340e-01f, 1.98175505e-01f, 1.10800788e-01f, -8.93016309e-02f, -1.26300856e-01f, -2.51177400e-01f, -1.86587065e-01f, -1.37770800e-02f, -4.32577170e-02f, -2.30017286e-02f, 9.88449752e-02f},
  {-2.35261336e-01f, -1.19250745e-01f, -3.12068224e-01f, -2.06724584e-01f, 4.88369793e-01f, 7.65267387e-02f, -1.80668265e-01f, 2.80809999e-01f, -6.42609075e-02f, -3.65854949e-01f, -1.07644591e-02f, -3.59920412e-01f, 2.53220737e-01f, 4.34015751e-01f, 4.89705317e-02f, 1.17603920e-01f, -1.19016841e-01f, 2.55848527e-01f, 2.29804248e-01f, -4.03201580e-01f, 9.76490229e-03f, -4.05326039e-02f, 5.58135808e-01f, 4.15660203e-01f, 9.94193330e-02f, 2.00371146e-01f, -8.35517980e-03f, 4.49914392e-03f, -1.58246458e-01f, -5.13615727e-01f, 2.58903444e-01f, 2.23463699e-02f, -2.94734895e-01f, -4.28814679e-01f, 1.55857995e-01f, 4.90547955e-01f, -1.69450969e-01f, -2.37889618e-01f, -1.86175302e-01f, -1.78854674e-01f, -4.49262887e-01f, -1.27338067e-01f, -2.96309233e-01f, 4.18029547e-01f, -4.36290391e-02f, 4.86953668e-02f, 6.77342057e-01f, -3.79926831e-01f, -3.60046387e-01f, -1.91561863e-01f, -1.89871907e-01f, 2.23123610e-01f, 1.81535721e-01f, 2.51260847e-01f, 3.84538099e-02f, -3.58114600e-01f, 4.21956331e-01f, 1.56048462e-01f, 2.67994791e-01f, 5.47782063e-01f, 1.72922552e-01f, 1.99979484e-01f, 1.24456761e-02f, 6.20296538e-01f},
  {5.37766628e-02f, -2.09716707e-01f, 4.72499192e-01f, -2.34098345e-01f, -3.14382404e-01f, 5.18500991e-02f, 2.09853992e-01f, -7.65877683e-03f, 1.65575892e-02f, 1.44161321e-02f, -2.70956475e-02f, 4.23786134e-01f, -1.23052150e-01f, -2.86022514e-01f, 9.41438228e-02f, 1.58195764e-01f, -2.53937710e-02f, -6.57728314e-02f, -3.24001014e-01f, -2.53653247e-02f, 2.43440792e-02f, 4.01258558e-01f, -2.91878164e-01f, -1.82038009e-01f, -4.28215742e-01f, 1.59274057e-01f, 2.07080785e-03f, 1.88198254e-01f, -2.27833793e-01f, 5.07573634e-02f, 1.26917645e-01f, 2.59126127e-01f, 2.79284924e-01f, 2.87997365e-01f, -1.95319369e-01f, -1.09463103e-01f, -1.49293095e-01f, 1.20419979e-01f, 1.65763870e-01f, 6.28923923e-02f, 3.64706695e-01f, 1.79098845e-01f, 2.32669294e-01f, -1.41824335e-01f, -3.96838099e-01f, 2.46765584e-01f, -3.86704683e-01f, 3.85329932e-01f, 2.37276495e-01f, -4.21593487e-02f, 2.16360632e-02f, -2.27102771e-01f, -1.08452998e-01f, -7.67591670e-02f, 1.46639571e-01f, 2.07019016e-01f, -1.29995823e-01f, -1.33791670e-01f, -3.73053014e-01f, -2.92837173e-01f, -1.71629950e-01f, -1.40223235e-01f, 8.30524322e-03f, -1.15045972e-01f},
  {7.25248083e-02f, 4.44545643e-03f, -6.87196702e-02f, 1.24204002e-04f, 2.51547813e-01f, 3.73402864e-01f, 1.48061916e-01f, -1.18552139e-02f, 1.83838811e-02f, 9.14833024e-02f, 5.91187403e-02f, 6.28189044e-03f, -1.31168306e-01f, -4.09837902e-01f, -2.34893978e-01f, -2.06676051e-01f, -1.15957171e-01f, -2.87450463e-01f, 2.72709072e-01f, 8.17606673e-02f, 2.63953894e-01f, -2.28605285e-01f, 5.91727719e-02f, -2.67428398e-01f, 6.89141452e-01f, -2.90052801e-01f, -2.47667015e-01f, -5.46852410e-01f, 1.78957582e-01f, 1.78415328e-01f, -3.04856390e-01f, 5.20574767e-03f, -1.81070045e-01f, -2.40243047e-01f, 1.46306559e-01f, 1.64148718e-01f, 1.54716358e-01f, -2.29876354e-01f, 2.04504758e-01f, -2.31185898e-01f, -3.60536203e-02f, -6.49144500e-02f, 3.62945110e-01f, 1.20917790e-01f, 2.71720856e-01f, -2.88945019e-01f, 2.34111026e-01f, -3.02352190e-01f, -1.54331788e-01f, 5.69953546e-02f, 2.21513733e-01f, 3.91540110e-01f, 1.12931244e-01f, 3.35866176e-02f, -5.67934662e-02f, -2.83506662e-01f, -2.34471336e-01f, -1.36669070e-01f, 3.55004340e-01f, 3.08897346e-01f, -1.01399682e-01f, 2.50709623e-01f, -1.99460030e-01f, -1.51920646e-01f},
  {2.37437308e-01f, 6.69502169e-02f, -7.37476274e-02f, -1.46960258e-01f, 1.06362887e-01f, 2.79780656e-01f, 1.70776382e-01f, 2.20539141e-02f, -8.76877457e-02f, 2.21667647e-01f, 2.24342152e-01f, -3.61460000e-02f, 3.76535028e-01f, 3.51301432e-01f, 1.38347708e-02f, 1.49272205e-02f, 2.47335017e-01f, 8.07516277e-03f, 5.80751486e-02f, 3.25365625e-02f, 3.65803279e-02f, -1.58728898e-01f, 1.49014235e-01f, 8.39219540e-02f, -3.24587375e-01f, -3.48293409e-02f, 2.50415653e-01f, 1.70740113e-01f, -5.84268682e-02f, -5.21529205e-02f, -1.79843158e-01f, -3.85265835e-02f, -7.00426772e-02f, -1.58657536e-01f, -1.20249182e-01f, -6.07348271e-02f, -7.44356737e-02f, 2.39705980e-01f, 3.41741964e-02f, -1.29490986e-01f, -4.34693284e-02f, -2.48698428e-01f, -5.99042512e-02f, -3.23789597e-01f, -7.59219825e-02f, -1.14540786e-01f, 2.50925392e-01f, 2.72971718e-03f, 2.00718224e-01f, 1.48072347e-01f, -2.01692685e-01f, -1.08581275e-01f, 1.74965188e-01f, 2.40400806e-02f, -1.34354025e-01f, 7.17305988e-02f, -1.07958987e-02f, -1.42979369e-01f, 4.14379202e-02f, 1.39412701e-01f, 1.59602314e-01f, -1.42789453e-01f, -5.38174547e-02f, -1.25756443e-01f},
  {2.93786488e-02f, -4.24703732e-02f, 1.52611434e-01f, -2.14258045e-01f, -2.32590642e-02f, -1.92892134e-01f, 8.04651603e-02f, 2.89919674e-01f, -2.30537936e-01f, 4.59356010e-01f, -9.51987356e-02f, 5.33875152e-02f, -2.32565328e-01f, -1.76844317e-02f, 3.65314335e-01f, -3.24507415e-01f, 1.70150891e-01f, -7.45179802e-02f, -1.26349777e-01f, 7.37823993e-02f, -2.24645212e-01f, -6.24347925e-02f, -3.20954286e-02f, -2.79267319e-02f, 2.34380260e-01f, -4.89031076e-02f, -9.24593862e-03f, -2.95697212e-01f, 5.24253398e-02f, 7.94603676e-02f, 2.46581048e-01f, -4.94115017e-02f, 7.45894431e-06f, -1.64274890e-02f, -2.22581595e-01f, -2.87425190e-01f, 2.07422480e-01f, -3.55713040e-01f, -9.61635560e-02f, 2.25634381e-01f, 1.73448399e-01f, -1.06201954e-01f, 1.92555428e-01f, -6.48545548e-02f, -1.10705877e-02f, -2.96022952e-01f, -1.06046841e-01f, 2.46704727e-01f, 1.05034828e-01f, 1.47945568e-01f, 2.78092355e-01f, 1.02682903e-01f, 4.61689442e-01f, 3.70192915e-01f, 2.30268568e-01f, 2.23348245e-01f, -2.72722691e-01f, -3.22074711e-01f, 2.65504241e-01f, 8.49349201e-02f, -5.27939275e-02f, 2.50006765e-01f, 2.76039749e-01f, -2.85922050e-01f},
  {2.93983091e-02f, 5.13669550e-02f, 2.32790858e-01f, -1.96419060e-02f, -2.30296284e-01f, -1.33996606e-01f, 3.05310309e-01f, -1.31891578e-01f, -3.98561284e-02f, 1.12274820e-02f, -5.53740524e-02f, 2.13342875e-01f, -3.53534490e-01f, -2.70318598e-01f, -1.52420014e-01f, 5.46067320e-02f, 9.94879100e-03f, -2.25330085e-01f, -1.63304895e-01f, 3.99863571e-02f, -2.91374531e-02f, -9.93454270e-03f, -5.55550873e-01f, -1.09288223e-01f, -2.09908411e-02f, 1.32325321e-01f, 4.22791205e-02f, -5.40708250e-04f, 4.93622273e-02f, 2.16094330e-01f, 6.77413717e-02f, 1.66420832e-01f, 2.31535748e-01f, 2.31654897e-01f, -1.21989951e-01f, -3.20855558e-01f, -7.89377540e-02f, 2.10118711e-01f, 2.80835837e-01f, 2.21637666e-01f, 3.27388018e-01f, -5.71792237e-02f, 1.41255826e-01f, -3.98223162e-01f, -7.22001772e-03f, 6.88511133e-02f, -3.45673919e-01f, 2.12615550e-01f, 1.56152248e-01f, -9.85616595e-02f, 9.39892530e-02f, -1.64096311e-01f, -1.45904735e-01f, -1.82486877e-01f, 1.42774895e-01f, 3.04192275e-01f, -6.86688721e-02f, -2.14871451e-01f, -1.01966485e-01f, -4.01244521e-01f, -2.85400569e-01f, -1.69216707e-01f, -1.10407528e-02f, -1.22479327e-01f},
  {-8.71385559e-02f, 1.10076152e-01f, -1.50395542e-01f, 2.11243138e-01f, 9.43721533e-02f, -1.42496051e-02f, 2.94268858e-02f, 1.51453704e-01f, 2.94496775e-01f, -2.49212533e-02f, -1.75653800e-01f, -1.13725699e-01f, 8.34616795e-02f, -1.82611540e-01f, -1.51779488e-01f, -1.74654424e-01f, -1.03641376e-02f, 2.16948763e-01f, 2.50504799e-02f, 1.06126657e-02f, -1.98280379e-01f, -1.28570661e-01f, -2.06351560e-03f, 2.63268948e-01f, 9.76433009e-02f, 4.34627198e-02f, 3.30433287e-02f, -8.21117014e-02f, 1.08665444e-01f, -2.11700704e-02f, 1.26931086e-01f, 1.15698136e-01f, -2.77049113e-02f, 2.72533923e-01f, -4.21004705e-02f, 4.85701263e-02f, 7.86046833e-02f, -1.89697206e-01f, -6.04148693e-02f, 1.69341505e-01f, -1.42301172e-01f, -9.71276686e-02f, -7.45883062e-02f, 9.07552019e-02f, 1.51124224e-02f, 9.35912877e-02f, 2.07179919e-01f, -9.31304619e-02f, -2.42525697e-01f, -1.09407522e-01f, 1.35770097e-01f, 2.35010952e-01f, 1.19141929e-01f, 7.19867125e-02f, 5.83628714e-02f, -2.22660616e-01f, 1.56404302e-01f, 7.53464997e-02f, 1.26756907e-01f, -5.05736060e-02f, 1.52231101e-02f, 1.15669101e-01f, 5.06830096e-01f, 5.04246540e-03f},
  {9.55748409e-02f, -2.41848286e-02f, -3.54302563e-02f, 1.77994028e-01f, 1.30804360e-01f, 2.66141027e-01f, 1.69767156e-01f, -1.08779423e-01f, -5.73034473e-02f, 3.96009348e-02f, 2.16864929e-01f, 3.31250317e-02f, -4.60899509e-02f, -4.11702581e-02f, -4.80333120e-02f, -1.39323041e-01f, 1.07126661e-01f, -2.88364500e-01f, 7.66836032e-02f, 2.31458154e-02f, 5.32939518e-03f, -1.31694824e-01f, 6.91897497e-02f, 3.01759578e-02f, 4.09781963e-01f, -3.25784564e-01f, -8.05247482e-03f, -1.42037436e-01f, -1.87990803e-03f, 9.82499495e-02f, -1.28335848e-01f, -2.01019228e-01f, -1.20421030e-01f, -1.01747746e-02f, -1.80914793e-02f, -7.23706037e-02f, 3.34337741e-01f, -1.23146154e-01f, 1.20764323e-01f, 5.03457822e-02f, 4.50616628e-02f, -1.59377102e-02f, -1.16435088e-01f, -1.55246779e-01f, 1.76153351e-02f, -3.80645804e-02f, 2.21504271e-02f, 1.16815614e-02f, 6.21780008e-02f, 5.78875877e-02f, 9.50937867e-02f, -4.11283784e-02f, 1.87910527e-01f, -1.87419713e-01f, -5.62034175e-02f, -1.59860969e-01f, -8.49662628e-03f, 3.88324521e-02f, 3.89409140e-02f, -1.03947483e-01f, -2.14240417e-01f, 1.41026095e-01f, -7.96124637e-02f, 3.93756516e-02f},
  {7.17462972e-02f, 4.53723520e-02f, 1.16611207e-02f, 1.22619428e-01f, 1.54744402e-01f, 1.80670887e-01f, 3.38837020e-02f, -1.68214506e-03f, -4.86437045e-02f, 6.13206141e-02f, -1.64691377e-02f, 1.55356839e-01f, -1.92642778e-01f, -1.69024348e-01f, -1.17256030e-01f, 4.83155530e-03f, -1.39953598e-01f, 2.20003575e-01f, 1.22078300e-01f, 2.30028167e-01f, 2.29382321e-01f, -8.03373456e-02f, -3.48364376e-02f, -6.49088770e-02f, 5.82946181e-01f, -8.46634358e-02f, -3.19531299e-02f, -3.89025927e-01f, 2.33838990e-01f, 1.56549096e-01f, -2.10484475e-01f, -1.08403921e-01f, -2.32420430e-01f, -1.35776609e-01f, 1.33768022e-01f, 3.41326654e-01f, -1.74645931e-01f, -1.60668120e-01f, -5.45638502e-02f, -1.99789822e-01f, -1.04896016e-01f, -1.30311744e-02f, -2.56946925e-02f, -5.36907390e-02f, 2.70650208e-01f, 7.81035498e-02f, -5.08721545e-03f, -4.67704842e-03f, -1.43092975e-01f, 1.38516827e-02f, 1.12288021e-01f, 7.97089189e-02f, -1.84088890e-02f, -8.11869279e-02f, 1.71485260e-01f, -5.14940806e-02f, -2.60915924e-02f, -2.71763895e-02f, 2.56977618e-01f, -2.63619572e-02f, 9.42392796e-02f, 7.09960461e-02f, 1.66121069e-02f, -1.14850029e-01f},
  {-7.46196732e-02f, 1.03552483e-01f, -4.23613518e-01f, 4.56493199e-02f, 3.82912755e-01f, 2.93242574e-01f, -1.98751673e-01f, 4.29452658e-01f, -9.66092274e-02f, -1.96896791e-01f, 1.26043009e-02f, -3.02203566e-01f, 4.55077320e-01f, 4.34155017e-01f, 1.27606139e-01f, 2.49530956e-01f, -2.68781167e-02f, 3.24280411e-01f, 2.57275254e-01f, -2.02261969e-01f, 8.95257071e-02f, -3.67229074e-01f, 4.98895377e-01f, 1.03232138e-01f, 3.25314373e-01f, -1.13966361e-01f, -2.59830952e-02f, -1.12849213e-01f, 1.02018036e-01f, -5.74936986e-01f, 5.22804214e-03f, -2.37607703e-01f, -4.31088477e-01f, -3.51586282e-01f, 2.31018394e-01f, 5.22529662e-01f, 1.82436004e-01f, -2.26881936e-01f, -2.86971182e-01f, -3.14888537e-01f, -4.92495507e-01f, -1.13813177e-01f, -2.25801781e-01f, 5.48651099e-01f, 3.28776687e-01f, -1.69394468e-03f, 5.27220845e-01f, -3.93982470e-01f, -2.77645290e-01f, 2.43245251e-02f, -1.46168828e-01f, 1.87756404e-01f, -1.01245984e-01f, 2.07608089e-01f, -2.01655567e-01f, -4.33053583e-01f, 3.38191777e-01f, 1.28038213e-01f, 4.62363362e-01f, 6.17076755e-01f, 1.96726739e-01f, 1.78984568e-01f, -3.06266472e-02f, 3.22191000e-01f},
  {-2.35733509e-01f, 8.97511765e-02f, -8.72918665e-02f, 1.41734689e-01f, -1.92990214e-01f, -3.45313013e-01f, -1.73253611e-01f, 1.49466336e-01f, 1.30763367e-01f, -1.21294811e-01f, -2.50442624e-01f, -4.23720837e-01f, 3.79203856e-01f, 6.46959960e-01f, 2.50638098e-01f, -1.13343028e-02f, 1.18101597e-01f, 2.69700229e-01f, -3.09827566e-01f, -1.58139974e-01f, -5.39605618e-01f, 7.20929578e-02f, 2.90900439e-01f, 2.23968849e-01f, -7.07832336e-01f, 3.24468791e-01f, 4.14060473e-01f, 7.89197445e-01f, -2.73163348e-01f, -3.05377185e-01f, 5.55253267e-01f, 7.74124563e-02f, 1.47069797e-01f, 3.33968461e-01f, -6.35286868e-01f, -6.35063350e-01f, -2.74862759e-02f, 2.71158546e-01f, -3.55744332e-01f, 4.47125137e-01f, -6.73302040e-02f, -2.33674079e-01f, -5.66783309e-01f, -2.54437834e-01f, -2.37142757e-01f, 1.98735848e-01f, -5.46797253e-02f, 1.60043761e-01f, 2.13104989e-02f, -3.32778931e-01f, -3.13408792e-01f, -3.25503945e-01f, -9.51619074e-02f, -1.03518762e-01f, -2.42835015e-01f, 5.28016426e-02f, 3.30205947e-01f, 3.43135148e-01f, -1.99981347e-01f, -1.26023144e-01f, 2.66641021e-01f, -2.43613943e-01f, 2.35167265e-01f, 3.11333716e-01f},
  {4.06470597e-02f, 3.66882682e-02f, 5.07595995e-03f, -3.83733734e-02f, 1.12071060e-01f, 1.47970885e-01f, -9.11849663e-02f, -9.78890434e-02f, 5.09016169e-03f, 6.12153560e-02f, 3.24155986e-02f, 3.30877677e-02f, 1.37578985e-02f, 3.19025549e-03f, -7.40674883e-02f, 1.62128657e-01f, 1.72996476e-01f, -1.10865675e-01f, 9.56803039e-02f, 1.21497370e-01f, 1.95191532e-01f, -1.23744510e-01f, 2.45456416e-02f, -3.23828906e-02f, 1.59233302e-01f, 1.61923431e-02f, -1.37660116e-01f, -3.87146436e-02f, -1.43838152e-02f, 1.54505342e-01f, 9.10809822e-03f, -7.43172839e-02f, -7.90552199e-02f, -2.21858658e-02f, -4.40450348e-02f, -2.53026597e-02f, -2.99397744e-02f, -1.76457122e-01f, 1.23649545e-01f, -1.63965538e-01f, -6.00910978e-03f, 4.89094481e-02f, 9.07959193e-02f, -1.43928304e-01f, 6.94563761e-02f, 5.76621480e-03f, 3.78948972e-02f, 5.77324107e-02f, 9.02010277e-02f, 6.05044828e-04f, 5.69753088e-02f, -7.35842139e-02f, 8.49366412e-02f, -8.41117054e-02f, 3.16393077e-02f, -6.59205988e-02f, -1.20613955e-01f, 6.45366982e-02f, 1.47567928e-01f, 2.23590642e-01f, -2.67634001e-02f, 5.43963425e-02f, -9.03362315e-03f, -4.27196659e-02f},
  {-1.95656195e-01f, -4.09227517e-03f, -2.75764048e-01f, 1.68648921e-02f, 2.11919665e-01f, -6.89680353e-02f, -2.02768594e-01f, 1.64293304e-01f, 4.66773212e-02f, 2.19491199e-02f, -3.28613818e-02f, -1.80208042e-01f, 8.83935317e-02f, 2.14500114e-01f, 8.18776712e-02f, 1.72255173e-01f, -1.55389428e-01f, 3.77533555e-01f, 5.23533486e-02f, -2.26446688e-01f, 5.03153838e-02f, -1.65092677e-01f, 2.54601330e-01f, 1.13377333e-01f, 1.36014253e-01f, 2.70364154e-02f, -2.55098399e-02f, -1.75263762e-01f, 1.36302590e-01f, -3.56689900e-01f, -1.06377266e-01f, -1.47200137e-01f, -2.27198243e-01f, -2.52784759e-01f, 4.37712632e-02f, 4.11731362e-01f, 3.80683504e-02f, -1.72393292e-01f, -1.84510276e-01f, -5.31839356e-02f, -3.85922104e-01f, -4.91755530e-02f, -2.29100540e-01f, 3.39965343e-01f, 2.22931638e-01f, -1.75418839e-01f, 2.58023471e-01f, -2.71867663e-01f, -1.67847440e-01f, -1.04427606e-01f, -5.00596985e-02f, 1.48233652e-01f, -3.26927565e-02f, 1.63648218e-01f, -1.04958266e-02f, -2.51814067e-01f, 2.07376584e-01f, 3.11478376e-01f, 1.88521385e-01f, 2.94883013e-01f, 1.67401180e-01f, 2.27110580e-01f, -7.16290474e-02f, 2.13649556e-01f},
  {-7.07834587e-02f, 3.40306386e-03f, 6.87132031e-02f, -1.48846373e-01f, -1.55997694e-01f, -2.02274010e-01f, -3.66979130e-02f, 7.49550667e-03f, 6.25144178e-03f, -2.34747548e-02f, -1.71493277e-01f, -7.03258161e-03f, -1.39079943e-01f, 3.10934652e-02f, 2.38217056e-01f, 6.30829558e-02f, -3.55528407e-02f, -5.69686145e-02f, -7.40638971e-02f, -1.29765302e-01f, -1.74106017e-01f, 1.75708771e-01f, -1.60850748e-01f, 6.56124726e-02f, 1.32468224e-01f, 9.63691529e-03f, 6.22598175e-03f, 8.80973879e-03f, -1.40594751e-01f, -1.57192757e-03f, -5.44839539e-03f, -9.89367813e-02f, -1.57387704e-02f, 1.68463029e-02f, 5.43269776e-02f, 5.54865301e-02f, -1.95447236e-01f, -4.54401523e-02f, 8.26518461e-02f, 1.51026770e-01f, 4.45991978e-02f, 1.27497241e-01f, 1.46600395e-01f, 4.82169306e-03f, -6.46663532e-02f, -7.90960342e-02f, -1.20703116e-01f, -2.91004051e-02f, 4.32476141e-02f, -1.03510424e-01f, -1.08242027e-01f, 6.38379678e-02f, -1.42015129e-01f, 9.42536443e-02f, 1.25189483e-01f, -2.91625783e-02f, 6.19506054e-02f, 1.82615966e-02f, -1.90447330e-01f, -1.18404560e-01f, 5.12891188e-02f, 4.93964218e-02f, -6.13143072e-02f, 1.21091127e-01f},
  {1.52762607e-01f, -1.23578645e-01f, 4.58312295e-02f, -1.45834357e-01f, -5.14186136e-02f, 8.19380861e-03f, 2.34020039e-01f, -1.86113134e-01f, -1.84559464e-01f, 1.40469773e-02f, -9.55456123e-02f, 1.12538360e-01f, -2.43994649e-02f, 1.34467683e-03f, 8.60874131e-02f, 1.60026461e-01f, -1.89128116e-01f, -1.23511769e-01f, -9.28451344e-02f, -1.07803315e-01f, -1.24013260e-01f, 2.07661521e-02f, -1.82501510e-01f, -9.94044915e-03f, -2.17624784e-01f, 6.84425309e-02f, 2.09730998e-01f, 2.07479492e-01f, -2.25573152e-01f, 6.95643127e-02f, 2.52157617e-02f, 1.42373458e-01f, 1.09172203e-02f, -4.60035168e-02f, -7.85133690e-02f, -1.51823789e-01f, -2.59874575e-02f, 1.83331743e-02f, 2.23637104e-01f, 1.54417202e-01f, 2.21250296e-01f, -8.98200497e-02f, -6.55000564e-04f, -2.86467195e-01f, -4.60671401e-03f, 8.68003536e-03f, -1.34675071e-01f, 9.60921869e-02f, 2.11271808e-01f, -1.10547738e-02f, -5.42550115e-03f, -2.59660780e-01f, 5.83354346e-02f, -4.03123870e-02f, 4.96842340e-02f, 1.12676777e-01f, 9.29211453e-02f, -2.13431984e-01f, -2.38607571e-01f, 6.81930333e-02f, 1.61350831e-01f, -2.63795778e-02f, 1.86636999e-01f, -5.01402281e-02f},
  {-6.14189543e-02f, -8.62967968e-02f, -1.35447592e-01f, -1.46372721e-01f, -6.17263913e-02f, -1.48631977e-02f, -1.46107048e-01f, -1.82527639e-02f, 6.95620999e-02f, -1.10163279e-01f, -6.16728961e-02f, 1.04068860e-01f, -3.13512012e-02f, 6.86012134e-02f, -9.98967607e-03f, -2.18419097e-02f, 3.83530045e-03f, -1.37930349e-01f, -6.94682375e-02f, 3.82781178e-02f, 3.02620046e-02f, -4.94794641e-03f, 3.05298232e-02f, -8.01329389e-02f, 2.05391452e-01f, -1.53289631e-01f, -2.57996712e-02f, -6.82727844e-02f, -2.14363914e-02f, -1.32017523e-01f, 9.39477980e-02f, -2.54033469e-02f, 2.89640464e-02f, 5.38175814e-02f, 5.57974949e-02f, 6.51283860e-02f, 7.64869079e-02f, -8.94438401e-02f, 1.07434630e-01f, 5.72927669e-02f, 3.18046324e-02f, 8.73074085e-02f, 1.30318269e-01f, 3.85851460e-03f, -8.05148669e-03f, -5.82807139e-02f, -1.41409948e-01f, 3.06881219e-02f, -7.83967227e-02f, -2.50059254e-02f, 3.97301763e-02f, 4.47671637e-02f, 2.42107064e-02f, 6.55658245e-02f, 6.35229051e-02f, -5.12717590e-02f, 2.96971127e-02f, 4.51211184e-02f, 1.52200125e-02f, -1.02537520e-01f, -1.71805799e-01f, -1.24038622e-01f, -1.15164243e-01f, 8.72153714e-02f},
  {-3.10989656e-02f, -1.69167787e-01f, 1.24414869e-01f, -1.18819520e-01f, 6.06859364e-02f, 1.55610979e-01f, 1.58042058e-01f, 6.56256899e-02f, -2.14268029e-01f, 9.37449485e-02f, 5.60558923e-02f, -5.45485727e-02f, 1.72997683e-01f, -3.54372337e-02f, -1.39612481e-01f, 1.01920336e-01f, -2.02342290e-02f, 1.99057192e-01f, 5.62409274e-02f, 6.63108826e-02f, -1.41604528e-01f, 2.58244593e-02f, 8.34836215e-02f, 1.55395865e-01f, -1.49109423e-01f, 1.33710176e-01f, 1.07105263e-01f, 4.63756286e-02f, -1.23675741e-01f, -3.92538495e-02f, -4.16938812e-02f, 1.48301959e-01f, 3.81417461e-02f, 8.84191021e-02f, -9.91480649e-02f, -8.53962451e-02f, -1.13323025e-01f, 5.56663610e-02f, -5.09992279e-02f, 1.23628296e-01f, 2.76556183e-02f, 1.78062506e-02f, -5.81705533e-02f, -4.64601330e-02f, 1.63382515e-02f, -1.20336711e-01f, -4.84550558e-02f, 6.73384145e-02f, 9.00093392e-02f, -9.96903181e-02f, -1.17685124e-01f, -9.27431136e-02f, 1.30331665e-01f, -3.18371467e-02f, 4.96864431e-02f, 1.31518900e-01f, 3.56333666e-02f, -2.33576987e-02f, 1.17608398e-01f, -1.17017485e-01f, 6.66385936e-03f, -3.12174521e-02f, -3.27758640e-02f, 1.08478905e-03f},
  {1.46228015e-01f, 9.44511518e-02f, -1.60058096e-01f, 3.41831185e-02f, 1.14291519e-01f, 2.50569284e-02f, 6.05388992e-02f, 1.21776536e-01f, -3.79225910e-02f, -2.06616037e-02f, 2.01907963e-01f, 6.18853718e-02f, 1.04370393e-01f, 5.08187746e-04f, -3.20577994e-02f, -1.97076589e-01f, 1.94210261e-01f, -2.01037332e-01f, 8.10307786e-02f, 7.12030614e-03f, 6.42326241e-03f, -3.24103385e-02f, 2.22814772e-02f, -9.67499912e-02f, -3.44937183e-02f, -9.97725949e-02f, -3.04260235e-02f, -1.40295714e-01f, 1.64825752e-01f, 2.01991469e-01f, -1.27099022e-01f, -1.68240130e-01f, 7.16293380e-02f, 1.81421377e-02f, -1.65380407e-02f, -1.55878499e-01f, 1.68027401e-01f, 1.16457068e-03f, -8.54932237e-03f, -1.38906240e-01f, -3.60423625e-02f, 1.81480665e-02f, -1.07631855e-01f, 4.89045270e-02f, 4.93588559e-02f, -1.18646279e-01f, 5.20461537e-02f, -1.84985012e-01f, -6.18908927e-03f, 1.31024823e-01f, -1.33299185e-02f, 2.65085585e-02f, 6.50525019e-02f, -2.48726651e-01f, -2.00069100e-01f, 6.73246086e-02f, -2.30376367e-02f, -3.59090529e-02f, -3.66973840e-02f, -1.42923698e-01f, -1.79110821e-02f, 5.40995821e-02f, 8.17785561e-02f, -7.19556436e-02f},
  {-2.68366318e-02f, 1.10641733e-01f, 7.94710070e-02f, 3.78405824e-02f, 1.58928961e-01f, -8.68613496e-02f, -1.51346684e-01f, -8.19293484e-02f, -5.59513643e-02f, 3.72293964e-02f, 1.14419192e-01f, -7.97088146e-02f, -1.29793391e-01f, 8.28144401e-02f, 4.05952856e-02f, 3.02934879e-03f, -7.58576617e-02f, -2.44944081e-01f, 4.85495813e-02f, -6.48527145e-02f, 9.32379998e-03f, -1.18540026e-01f, -2.64685508e-02f, -1.86422929e-01f, 1.26589704e-02f, -1.41682714e-01f, 7.96179101e-02f, -6.25654310e-02f, 8.58158022e-02f, -1.05212308e-01f, -1.43868160e-02f, -1.87439919e-01f, 5.81462905e-02f, -2.00207122e-02f, 8.60302523e-02f, 5.41205406e-02f, 4.65921052e-02f, 1.08901404e-01f, 1.88799456e-01f, -1.87335402e-01f, -6.71868697e-02f, 8.51190463e-02f, 2.15940177e-01f, -1.36504427e-01f, 2.25578234e-01f, -3.35865505e-02f, -5.82938641e-02f, 6.23019524e-02f, 3.88340987e-02f, -1.62242968e-02f, -7.39635751e-02f, -1.13015555e-01f, -1.82532549e-01f, -1.18575051e-01f, 1.80301163e-02f, -2.03943811e-02f, -2.01727554e-01f, -1.79169588e-02f, -2.25063115e-01f, -6.57625645e-02f, -8.80755931e-02f, 4.83013602e-04f, -2.02028915e-01f, -2.40663700e-02f},
  {8.83260667e-02f, 8.57352018e-02f, -4.62206118e-02f, 2.25010198e-02f, 3.29380967e-02f, 4.40728813e-02f, -4.77663092e-02f, 4.02761623e-02f, 6.61720708e-03f, -1.99264988e-01f, 9.09021404e-03f, 9.92046371e-02f, -6.51671141e-02f, 1.09828198e-02f, -1.33467749e-01f, 1.73486084e-01f, 2.03450881e-02f, 8.40002298e-02f, -1.23221502e-01f, -7.80944154e-02f, 2.82297283e-02f, -3.53901945e-02f, 6.38226920e-04f, -8.37062970e-02f, -6.19034171e-02f, 9.80988666e-02f, -1.15650743e-01f, -5.92597835e-02f, 4.42647710e-02f, -1.54719993e-01f, 8.48766044e-02f, -1.12805650e-01f, 3.45057212e-02f, 4.77411263e-02f, 9.72992033e-02f, 7.73711056e-02f, -1.13219172e-01f, 9.26719680e-02f, 1.08115479e-01f, -9.24511030e-02f, -5.00102714e-02f, 1.10632721e-02f, -1.46370633e-02f, -5.66976070e-02f, -1.51985481e-01f, -1.96134653e-02f, -1.16789721e-01f, -8.54734406e-02f, -6.58141822e-02f, -2.15264097e-01f, -6.13796897e-02f, 2.70307008e-02f, -1.57411039e-01f, -1.32398801e-02f, 2.31757443e-02f, -2.75905170e-02f, -1.07652079e-02f, 1.45456403e-01f, 6.39427081e-02f, 2.39839572e-02f, -1.13934405e-01f, -1.19393565e-01f, -6.93648830e-02f, 4.06196415e-02f},
  {-6.39570579e-02f, -1.44599617e-01f, 1.57366976e-01f, -1.11964546e-01f, -1.80887625e-01f, -1.14684783e-01f, -5.81496060e-02f, -2.12516617e-02f, -3.48204821e-02f, -2.24230945e-01f, -5.63082062e-02f, 3.13000046e-02f, 7.44055957e-02f, 2.49704257e-01f, 1.98730558e-01f, 1.79783821e-01f, -7.96613768e-02f, 1.35037974e-01f, -6.12364337e-02f, -1.06943108e-01f, -3.49144220e-01f, 2.06282943e-01f, -1.83966875e-01f, 2.39409208e-01f, -4.88546342e-01f, 3.17532480e-01f, 2.30094671e-01f, 4.41463113e-01f, -1.83560014e-01f, -5.06299362e-02f, 2.78515756e-01f, 1.29306510e-01f, 3.71614541e-03f, 8.32228363e-02f, -2.54450679e-01f, -6.26480356e-02f, -4.90144566e-02f, 2.45936632e-01f, -3.03953495e-02f, 2.04091415e-01f, 1.72455907e-01f, -1.02506973e-01f, -1.13158658e-01f, -1.87103271e-01f, -1.54930621e-01f, 1.61163762e-01f, -1.42608449e-01f, 4.05035280e-02f, 1.22441836e-01f, -1.01934433e-01f, -2.46957585e-01f, -2.26236254e-01f, -2.69181013e-01f, 1.09675685e-02f, -9.74279568e-02f, 3.33992317e-02f, 1.33304372e-01f, -1.59923330e-01f, -8.82129371e-02f, -4.37503867e-02f, 6.39737248e-02f, -2.04749018e-01f, 2.93459326e-01f, 5.20726778e-02f},
  {1.23559125e-02f, -1.56676039e-01f, 1.07314691e-01f, -2.33704314e-01f, -3.57783027e-02f, -9.74597409e-02f, -2.64670923e-02f, -1.49697259e-01f, -2.14123487e-01f, 3.72592397e-02f, 7.95949399e-02f, 1.60031199e-01f, -1.73003972e-01f, 2.23059542e-02f, 8.74942467e-02f, -1.51875010e-02f, -1.25524059e-01f, -1.65424302e-01f, 9.39427782e-03f, -1.47943065e-01f, 1.34668276e-01f, 1.09871477e-01f, -1.27721459e-01f, -1.25490323e-01f, 1.55587956e-01f, -6.48702830e-02f, -1.36490688e-02f, -3.90498638e-02f, 1.57007962e-01f, -1.15499601e-01f, 3.59689072e-02f, -3.17625590e-02f, -9.30833572e-04f, -5.95581792e-02f, 8.50832313e-02f, 1.14346482e-01f, -8.40070248e-02f, 6.03812076e-02f, 2.35350132e-01f, -3.95240039e-02f, 6.87694922e-02f, 2.16701195e-01f, 1.48593128e-01f, -8.85904953e-02f, 4.89888377e-02f, 2.42504571e-02f, -2.71419925e-03f, 4.76408415e-02f, 1.87720969e-01f, 8.41471776e-02f, -7.50906542e-02f, -1.10254079e-01f, 4.90643382e-02f, 3.70405205e-02f, 2.68911235e-02f, 1.49431586e-01f, -2.17370734e-01f, -1.54541835e-01f, -1.30505592e-01f, 5.84284868e-03f, -2.81008750e-01f, -4.79124896e-02f, -2.09704280e-01f, -7.98979998e-02f},
  {-1.79573253e-01f, 1.76359862e-01f, 3.60793658e-02f, 1.20301992e-01f, -2.48908456e-02f, -1.52911544e-01f, -3.68992984e-02f, 9.71688703e-02f, 1.59846678e-01f, -3.57215269e-03f, 3.82040851e-02f, 4.20077629e-02f, 3.42247784e-02f, 4.28479724e-02f, 4.29191701e-02f, -2.52733082e-01f, -1.06527232e-01f, -4.05147299e-02f, -1.67329460e-02f, 1.49962962e-01f, 1.46607712e-01f, -2.02056393e-02f, -2.52491504e-01f, -6.75463751e-02f, -1.75094847e-02f, -4.38227132e-02f, -2.42853507e-01f, -2.54185557e-01f, -1.47716124e-02f, -3.73577103e-02f, -7.50885084e-02f, -2.53765255e-01f, -1.49055123e-01f, 4.77397442e-02f, -1.13658197e-01f, -1.17702615e-02f, 2.17118248e-01f, -1.59743577e-01f, -9.61145535e-02f, -1.07370190e-01f, -1.66058049e-01f, 2.07772568e-01f, 1.33690657e-04f, -2.08366856e-01f, 2.13137627e-01f, -4.91770022e-02f, -6.36888295e-02f, -8.36361796e-02f, -1.80443093e-01f, -4.99672443e-02f, 2.50991613e-01f, 1.62590340e-01f, 7.21029341e-02f, 1.71222910e-02f, -8.08152109e-02f, -1.01140611e-01f, -2.32005771e-03f, -1.04491122e-01f, -1.36786506e-01f, 5.47342375e-02f, 4.43214551e-03f, 1.23276755e-01f, 3.65571268e-02f, -7.23601580e-02f},
  {1.62174236e-02f, -3.84528600e-02f, -3.67221460e-02f, 6.42096102e-02f, -8.33745003e-02f, 4.83899266e-02f, -7.52555802e-02f, -1.58320367e-03f, 3.91196720e-02f, -1.97861582e-01f, 6.97597489e-02f, -8.09535608e-02f, 3.02369590e-03f, -5.88996448e-02f, 9.61229578e-03f, 1.57620996e-01f, -3.22647393e-02f, -2.33271532e-02f, -1.27788484e-01f, 6.69846172e-03f, -8.45572874e-02f, 1.28630266e-01f, -4.12660204e-02f, 5.29606454e-02f, 7.12511092e-02f, 6.98869228e-02f, -2.40451787e-02f, 6.44900426e-02f, -1.18267693e-01f, 7.58597776e-02f, 1.36405537e-02f, 2.77982540e-02f, 1.03718545e-02f, -4.64995317e-02f, -5.85939959e-02f, 1.28583580e-01f, -1.07220039e-01f, 1.27400327e-02f, 6.09471239e-02f, 2.57077701e-02f, -1.02716744e-01f, -9.46669653e-02f, -2.80585811e-02f, 1.30784154e-01f, -1.68278426e-01f, 8.98041055e-02f, 5.29883616e-02f, -4.09805998e-02f, -4.45500799e-02f, -1.68331712e-01f, -7.16135651e-02f, -3.79654616e-02f, 3.73767340e-03f, 6.04632795e-02f, 9.82932970e-02f, -7.33576193e-02f, 6.93722069e-02f, 7.83155859e-02f, -2.16850825e-02f, 1.29293911e-02f, -8.64488333e-02f, 7.97940418e-02f, -9.46562737e-02f, 2.45793629e-02f},
  {-2.05329835e-01f, 2.87971217e-02f, -1.03036322e-01f, 1.26138315e-01f, -1.29909590e-02f, 7.23981038e-02f, -1.72197104e-01f, 1.88875228e-01f, 3.33482563e-01f, -8.02554265e-02f, 3.90330218e-02f, -1.50655359e-01f, 1.91968903e-02f, -9.04005673e-03f, -2.22062021e-01f, -2.60892957e-01f, 3.35048467e-01f, 1.81802914e-01f, 1.99571967e-01f, 4.87853251e-02f, 7.40336850e-02f, -7.16943592e-02f, 6.28723726e-02f, 6.94028521e-03f, 9.97434705e-02f, -2.17635587e-01f, -1.87124074e-01f, -7.13393558e-03f, 6.48542643e-02f, -2.02583820e-01f, -2.98099458e-01f, -4.59166318e-02f, -9.35830474e-02f, -4.18909639e-02f, 4.23459038e-02f, 1.13902465e-01f, 4.57414500e-02f, -5.38538471e-02f, -2.43321374e-01f, 2.95778159e-02f, -9.82547849e-02f, -3.78687829e-02f, -3.32931429e-02f, 3.26880932e-01f, 1.00937732e-01f, 5.97151257e-02f, 3.57813239e-02f, -1.28300071e-01f, -2.34844878e-01f, -2.17768446e-01f, 1.51471138e-01f, 2.21891999e-01f, 4.85439971e-03f, -8.54806602e-02f, -1.94839463e-01f, -2.44103760e-01f, -1.16454877e-01f, 2.34328389e-01f, 9.44528803e-02f, -2.59229004e-01f, -3.21631506e-02f, 3.51116471e-02f, 6.28534555e-02f, 8.62768963e-02f},
  {-7.04586357e-02f, 1.04207277e-01f, -8.36898480e-03f, 9.65497792e-02f, 1.30294338e-01f, 1.34794727e-01f, -1.54826939e-01f, 1.03982382e-01f, 4.90533449e-02f, -4.43153940e-02f, 1.66112587e-01f, 3.10240444e-02f, 3.68074737e-02f, -1.06873456e-02f, -9.05554444e-02f, -3.35584022e-02f, 1.07769750e-01f, -1.79496035e-01f, 1.83140591e-01f, 5.82543425e-02f, 2.49981761e-01f, -3.14843580e-02f, 2.97650009e-01f, -2.11397000e-02f, 2.59464204e-01f, -2.33480886e-01f, -8.88674185e-02f, -2.00005785e-01f, 1.18718438e-01f, 3.91182415e-02f, -1.53245389e-01f, -2.55624831e-01f, 2.65669799e-03f, -2.02800155e-01f, 1.88879803e-01f, 1.93651140e-01f, 4.45746928e-02f, 4.31593917e-02f, -1.27443848e-02f, -1.43568233e-01f, 3.32549103e-02f, 3.98179814e-02f, 1.27919301e-01f, -9.78727788e-02f, 4.37449403e-02f, -1.69874206e-01f, 5.29452972e-02f, 3.64849679e-02f, 6.06760830e-02f, -7.15346932e-02f, 4.18540984e-02f, -7.23565966e-02f, 1.58659667e-01f, -4.04899679e-02f, -1.37046739e-01f, -1.88144922e-01f, 2.37602666e-02f, 1.52003169e-01f, 1.42895579e-01f, 4.02378477e-02f, -1.73026979e-01f, 8.75546262e-02f, -1.27581194e-01f, 4.32432853e-02f},
  {-6.95969611e-02f, -8.05751458e-02f, 1.46310851e-01f, -2.62577944e-02f, -1.98269799e-01f, -1.41214758e-01f, -1.90494135e-01f, 3.17614153e-02f, 7.41842166e-02f, -1.90475643e-01f, 1.05465511e-02f, 7.37671629e-02f, -4.01097164e-02f, 2.00513843e-02f, 8.52309689e-02f, -7.22066090e-02f, 4.89472225e-03f, -1.46337668e-03f, -7.87162408e-02f, -1.63341597e-01f, -2.35378921e-01f, 1.65188581e-01f, -6.30984232e-02f, 1.01239532e-01f, -1.46534890e-01f, 2.03516364e-01f, 2.01243564e-01f, 2.09632009e-01f, -2.59147435e-01f, -1.19637713e-01f, 2.39484251e-01f, -2.11391430e-02f, 1.56247213e-01f, 1.47596762e-01f, -1.29232526e-01f, -8.98984447e-02f, -1.73795111e-02f, 1.77907541e-01f, -1.33333758e-01f, 1.65628597e-01f, -1.34004846e-01f, 1.36136552e-02f, -1.66635104e-02f, -1.20264895e-01f, -7.21343607e-02f, 2.21608877e-01f, -4.60989773e-02f, 5.45936003e-02f, 8.46796185e-02f, -2.03839958e-01f, -1.31011279e-02f, -2.51005620e-01f, 2.19938792e-02f, -3.53867486e-02f, 1.20042041e-02f, -7.42682368e-02f, 5.94011955e-02f, 3.30968425e-02f, -1.25452042e-01f, -1.08702861e-01f, 1.12362809e-01f, -1.64930403e-01f, 1.26906961e-01f, 1.46544352e-01f},
  {1.74690112e-01f, -7.30242878e-02f, 9.22288448e-02f, -8.96563753e-02f, 7.30628334e-03f, 1.23892121e-01f, -1.88259557e-01f, 9.73497238e-03f, -7.16153756e-02f, -6.78689852e-02f, 2.41789445e-01f, 1.40914798e-01f, 2.21141186e-02f, 7.67835602e-02f, -2.59966459e-02f, 4.36204262e-02f, -1.37211131e-02f, -1.68355376e-01f, 6.95654303e-02f, -1.18608899e-01f, 1.56140119e-01f, -3.67896259e-02f, -2.84366347e-02f, -1.52401358e-01f, 4.40095440e-02f, -1.13886476e-01f, -3.79986241e-02f, 2.60500312e-02f, -5.51333837e-02f, -1.62788972e-01f, -1.19873963e-01f, -1.69496909e-01f, -2.45885011e-02f, -1.52198553e-01f, -3.12278848e-02f, 5.63396104e-02f, -1.01416089e-01f, -7.86752440e-03f, 2.04914942e-01f, -1.06288292e-01f, 3.02120708e-02f, 3.00864410e-03f, 1.38130173e-01f, -1.10179938e-01f, 1.48803750e-02f, 7.10979700e-02f, 1.16096146e-01f, 1.00872092e-01f, 1.91570669e-01f, 1.47731798e-02f, -6.69572130e-02f, -9.71138328e-02f, 6.97628856e-02f, -1.02489650e-01f, 1.65702049e-02f, 1.84526276e-02f, -1.58793524e-01f, 8.97872746e-02f, 6.76849261e-02f, -1.86442450e-01f, -1.10242523e-01f, -1.30435377e-02f, -9.83307213e-02f, 7.65684247e-02f},
  {2.32375115e-01f, 5.69067188e-02f, -8.14994946e-02f, -9.78548601e-02f, 1.33326456e-01f, 1.11248963e-01f, 2.49068245e-01f, -8.35137367e-02f, -1.07425913e-01f, 3.75134200e-02f, 1.29415408e-01f, 1.13315232e-01f, 5.43738566e-02f, 1.26970187e-01f, -1.24469422e-01f, 6.52361885e-02f, -1.59587726e-01f, 1.42355800e-01f, -1.25473231e-01f, 1.12954013e-01f, 1.57907367e-01f, -1.00274803e-03f, -9.64497477e-02f, -5.53694144e-02f, -1.96216092e-01f, 9.73451361e-02f, 2.81029511e-02f, 1.44701734e-01f, -1.36932552e-01f, 4.09173705e-02f, -1.53612658e-01f, 1.48220569e-01f, 1.15744606e-01f, -1.83294147e-01f, -2.62660742e-01f, 2.78241765e-02f, -1.43028602e-01f, 1.34286672e-01f, -6.43034503e-02f, -1.95042208e-01f, -2.57726833e-02f, -5.62860072e-02f, 5.59764542e-02f, -1.93295568e-01f, -2.64060032e-02f, -4.24991474e-02f, 1.06200352e-01f, 3.55662107e-02f, 2.04477668e-01f, -5.72472960e-02f, -1.18031576e-01f, -1.62632227e-01f, 9.37573537e-02f, -9.96537283e-02f, 5.67088760e-02f, 3.00311241e-02f, 8.61806050e-02f, -2.80438606e-02f, -7.47797117e-02f, 2.11390465e-01f, -1.39400652e-02f, -1.75013334e-01f, -6.99062347e-02f, 1.06997021e-01f},
  {5.02198748e-02f, -3.46691757e-02f, -6.24337718e-02f, 8.60445872e-02f, 3.24315205e-02f, 1.75675347e-01f, 2.02386141e-01f, 1.74545385e-02f, -1.10748328e-01f, -4.70583960e-02f, -3.07381861e-02f, 1.62658215e-01f, -1.70416147e-01f, -1.81819990e-01f, 2.75928248e-02f, 8.25223327e-02f, -9.65403393e-02f, -1.10646635e-01f, 1.29347041e-01f, -6.83257962e-03f, 2.86907852e-01f, -3.10366619e-02f, -1.28552049e-01f, -1.45386726e-01f, 2.14029744e-01f, -4.20569591e-02f, -2.49783158e-01f, -9.49195474e-02f, 1.43840298e-01f, 1.70707166e-01f, -2.32788026e-02f, -3.18153873e-02f, -1.62491977e-01f, -3.20499428e-02f, -2.81615034e-02f, 1.29524738e-01f, -1.91301219e-02f, -2.50127524e-01f, 1.46356910e-01f, -2.32657447e-01f, 6.40675426e-02f, -1.47809032e-02f, 4.06600386e-02f, -6.84313327e-02f, 1.29742250e-01f, -1.33238873e-02f, -2.83635780e-02f, 4.83422875e-02f, 2.29589473e-02f, 2.21877143e-01f, 1.33656815e-01f, -3.42741162e-02f, -5.95018547e-03f, 3.33247110e-02f, 3.04185841e-02f, -7.89469033e-02f, 1.97312366e-02f, -8.59293807e-03f, 9.03390646e-02f, 1.27230868e-01f, -1.75227057e-02f, 6.83922693e-02f, -4.12103208e-03f, -2.05457970e-01f},
  {-6.86437860e-02f, 4.16226760e-02f, -1.30394772e-01f, 6.64619654e-02f, 1.48095131e-01f, 2.86852345e-02f, -2.36143377e-02f, -3.97032909e-02f, 4.66382131e-02f, 1.20179333e-01f, 2.83772498e-01f, 4.85958010e-02f, 5.56376912e-02f, -8.13936219e-02f, -4.46496457e-02f, -1.90504283e-01f, 2.35744566e-01f, -1.69330034e-02f, 1.85206801e-01f, 1.96000293e-01f, 1.33360162e-01f, -5.58439605e-02f, 3.20184976e-01f, -5.94603606e-02f, 9.18215141e-02f, -2.45833814e-01f, -4.95652342e-03f, -7.67075792e-02f, 2.13686779e-01f, 1.35558099e-01f, -1.45883337e-01f, -4.43391539e-02f, -1.98183730e-02f, -2.46399820e-01f, 1.23832129e-01f, 1.64153259e-02f, 1.06103688e-01f, -4.01975960e-02f, 1.04995966e-01f, -2.30132610e-01f, -6.05724901e-02f, -6.07338883e-02f, 9.78448894e-03f, 1.50458977e-01f, 2.35562041e-01f, -2.50407249e-01f, 2.31478140e-01f, 6.61777379e-03f, -6.61064163e-02f, 6.87801912e-02f, 1.29110605e-01f, 2.82462165e-02f, 4.66093570e-02f, -1.31739467e-01f, -9.30534378e-02f, -2.87193689e-03f, -8.75645801e-02f, -1.44988960e-02f, 2.80121744e-01f, 1.15995526e-01f, 3.28577422e-02f, 1.23970710e-01f, -1.77520782e-01f, -5.72151244e-02f},
  {9.34857354e-02f, 5.60139865e-02f, -3.72600853e-02f, -6.22954480e-02f, -1.93358243e-01f, -1.02305293e-01f, -1.04665905e-02f, 8.15252438e-02f, 1.83232222e-02f, 5.04079647e-03f, -1.98297873e-01f, -4.09255959e-02f, -9.19961557e-02f, -5.98926358e-02f, -1.15485657e-02f, -1.50455147e-01f, -1.07420065e-01f, 1.78267300e-01f, -1.17147118e-01f, 2.04521507e-01f, -1.45615503e-01f, -6.34093210e-02f, -1.01819620e-01f, -2.62782592e-02f, 5.30195460e-02f, -1.17950458e-02f, -1.26263890e-02f, 8.87758750e-03f, 2.58821212e-02f, 1.25373602e-01f, 1.93996578e-01f, 1.42263874e-01f, -4.86806817e-02f, 4.26354930e-02f, -2.00110659e-01f, 1.95656009e-02f, -7.84066468e-02f, -6.90959170e-02f, -1.54430851e-01f, 6.63930178e-03f, 7.28795379e-02f, 1.16732597e-01f, -2.41369549e-02f, 3.56691889e-02f, 4.55177464e-02f, -9.20771062e-03f, -1.36430889e-01f, 1.90027282e-01f, -8.01707357e-02f, 1.51156694e-01f, 1.07637979e-01f, 2.26401147e-02f, 1.21791638e-01f, 1.55039340e-01f, 9.57178921e-02f, -5.13544567e-02f, 6.24314360e-02f, -2.06929311e-01f, 9.16706696e-02f, 6.51388168e-02f, 4.27540243e-02f, 1.09210238e-01f, 1.31061286e-01f, -1.13137811e-01f},
  {4.07427736e-02f, -1.76863492e-01f, -2.21413164e-03f, 2.58542653e-02f, 1.57234613e-02f, 5.26289754e-02f, -1.20019212e-01f, 5.26495501e-02f, -5.83102442e-02f, -5.71592012e-04f, 1.40869215e-01f, 2.66337730e-02f, 1.16028264e-01f, -2.66459715e-02f, 3.55750769e-02f, -2.55366415e-01f, -9.81071666e-02f, -6.45493045e-02f, 6.63005114e-02f, 2.45329905e-02f, -2.77161673e-02f, -2.71388572e-02f, 4.77192663e-02f, 7.22265169e-02f, 1.45154551e-01f, -1.75915256e-01f, 7.76903033e-02f, -2.74187271e-02f, 7.27805495e-02f, 8.19180608e-02f, -9.08179283e-02f, 1.78276934e-02f, -1.20125957e-01f, -1.45845279e-01f, -1.67095453e-01f, -1.53181911e-01f, 2.18549177e-01f, -5.53454272e-02f, 5.67153916e-02f, -1.38429716e-01f, 3.91627029e-02f, -8.88717622e-02f, 8.69742706e-02f, -1.64732277e-01f, -5.71112521e-03f, -1.91716269e-01f, 1.66403968e-02f, 1.71233684e-01f, 7.94651136e-02f, 2.03644186e-01f, 3.09405103e-02f, -7.24105537e-02f, 9.98194218e-02f, 1.35480717e-01f, 5.66224232e-02f, 1.41005650e-01f, -1.47503048e-01f, -1.45574823e-01f, 7.26106986e-02f, 1.20282611e-02f, 8.51317421e-02f, 1.44659191e-01f, -4.42534164e-02f, -1.75288022e-01f},
  {-1.44676402e-01f, -7.41930529e-02f, 2.24417821e-01f, -1.80159584e-01f, -9.19972956e-02f, -2.14200944e-01f, -8.05427358e-02f, 1.01396270e-01f, 3.91789759e-03f, -1.72442541e-01f, -1.62393302e-01f, 1.99146122e-02f, -2.44227678e-01f, -9.91517827e-02f, 1.92373589e-01f, 1.93819150e-01f, -2.17512757e-01f, 2.47139633e-02f, 8.00588876e-02f, -9.18587819e-02f, -5.97583540e-02f, 2.12236106e-01f, -3.30886811e-01f, 3.19625512e-02f, 1.80438414e-01f, 8.69488437e-03f, -2.39664480e-01f, -8.79265964e-02f, -4.81958538e-02f, -1.27958655e-01f, 1.40538007e-01f, -5.57874553e-02f, 2.20495299e-01f, 4.78987098e-02f, -1.73832864e-01f, 2.49464735e-01f, -1.50204211e-01f, 2.96418350e-02f, -4.38223183e-02f, 1.86946526e-01f, 7.12815970e-02f, 2.60453612e-01f, 1.71475455e-01f, 1.32048905e-01f, -1.89981982e-03f, -6.74843490e-02f, -2.53120065e-01f, 8.28623995e-02f, 8.19788054e-02f, 4.91985418e-02f, 9.69277602e-03f, -6.46307096e-02f, -1.04009742e-02f, 2.33053416e-01f, 1.61447510e-01f, 4.06944379e-02f, -6.01101629e-02f, -1.34481505e-01f, -1.94168851e-01f, -3.58378500e-01f, -1.50002435e-01f, 1.08026369e-02f, 2.57030781e-02f, 3.11982166e-02f},
  {-1.04016982e-01f, -1.64352641e-01f, 1.35292009e-01f, -2.21377656e-01f, -2.06416011e-01f, -1.41173467e-01f, -1.51877344e-01f, -1.44775808e-01f, 1.55701884e-04f, -1.30918607e-01f, -1.24477707e-01f, 2.23791841e-02f, -1.10388152e-01f, -1.25330240e-01f, -1.96842570e-02f, -1.63605303e-01f, -1.81412056e-01f, -1.16947718e-01f, -2.17012241e-01f, -2.25068241e-01f, -5.93080372e-02f, 6.64071515e-02f, -1.77978668e-02f, 1.78195640e-01f, 2.56851226e-01f, -6.82135150e-02f, 5.89360818e-02f, -1.63159341e-01f, 2.95313597e-02f, -2.13949472e-01f, 8.71301687e-04f, -2.01152667e-01f, 5.76844513e-02f, 9.74987596e-02f, -5.70236295e-02f, -8.92653242e-02f, 1.03942603e-01f, 4.47757095e-02f, -3.18553559e-02f, 6.98485272e-03f, -6.73259273e-02f, 1.91094309e-01f, 5.08788116e-02f, 1.11501256e-03f, -5.08577451e-02f, 1.98102742e-02f, -1.55781999e-01f, -4.51778509e-02f, -1.37653291e-01f, -4.28348780e-03f, -1.26248077e-01f, 7.51280189e-02f, -3.83599102e-02f, 5.57717532e-02f, 2.61504110e-02f, -9.70621500e-03f, 5.30870110e-02f, -8.39422941e-02f, -1.98732391e-01f, -7.64841661e-02f, -1.39084190e-01f, -9.52982996e-03f, 1.26165032e-01f, 7.18932375e-02f},
  {9.23295617e-02f, -9.04524103e-02f, -4.83436286e-02f, -1.18816897e-01f, -9.36564878e-02f, 5.85828274e-02f, -1.46748811e-01f, 3.65060829e-02f, 2.47447267e-02f, -1.02022417e-01f, -8.76775235e-02f, -1.91374850e-02f, -1.89503685e-01f, 1.84960607e-02f, -4.49905656e-02f, -4.09823097e-02f, -1.34055763e-01f, -4.04300429e-02f, -7.48677626e-02f, -1.73779055e-01f, -1.07681006e-01f, 2.36905739e-01f, -8.99401680e-02f, -2.45989457e-01f, -8.18930939e-02f, 1.39682442e-01f, -8.58201981e-02f, -8.04221556e-02f, -7.89196268e-02f, -4.03910875e-02f, 5.75803034e-02f, 6.85844757e-03f, 5.05537428e-02f, 1.03594980e-03f, 4.86721657e-02f, 4.10159528e-02f, 9.43830758e-02f, -1.50669053e-01f, 6.71523064e-02f, -5.75807132e-02f, 5.26478700e-02f, -5.76215386e-02f, 1.55838698e-01f, 1.64474428e-01f, -4.96116355e-02f, 6.54947013e-02f, -3.92689705e-02f, -1.00596949e-01f, -5.42839952e-02f, -1.76684663e-01f, -8.82786810e-02f, 7.44771212e-02f, -9.84000117e-02f, 1.13863476e-01f, -6.45052409e-04f, -1.52662173e-01f, 1.20409012e-01f, -2.38947898e-01f, 4.95870560e-02f, -4.44468996e-03f, -2.73628533e-01f, 1.12202026e-01f, -1.57625616e-01f, -1.01000622e-01f},
  {-2.70664357e-02f, -2.49074608e-01f, 1.38958156e-01f, -2.58244127e-01f, -7.47568458e-02f, -6.73370063e-02f, 2.69839138e-01f, -1.04437940e-01f, -6.75862208e-02f, -6.86479658e-02f, -4.41828109e-02f, 5.24741560e-02f, -2.39435673e-01f, -9.25037786e-02f, -3.70610058e-02f, 1.34428874e-01f, -3.85679752e-01f, -2.23917626e-02f, -1.54764920e-01f, 5.42080700e-02f, 5.33476435e-02f, 1.46052048e-01f, -8.79560262e-02f, 3.83764170e-02f, -1.67327285e-01f, 1.17052965e-01f, -2.00497061e-02f, -9.21550021e-02f, -1.98182836e-02f, 1.25374543e-02f, 8.66847411e-02f, 1.46211714e-01f, 7.14285648e-04f, 1.03240386e-01f, 4.25869250e-04f, 1.48969263e-01f, -2.29791567e-01f, 4.72454987e-02f, 5.46726510e-02f, -5.14365770e-02f, 1.32360563e-01f, -1.05320334e-01f, 5.12907654e-02f, -3.92219014e-02f, -2.34355584e-01f, 3.15357596e-02f, -1.45530164e-01f, 9.72971618e-02f, 1.73103780e-01f, 1.06033027e-01f, -1.83246657e-02f, -1.64785236e-01f, -1.12615630e-01f, 5.35817593e-02f, 9.70473215e-02f, 2.14268286e-02f, 1.48237385e-02f, -1.52879760e-01f, -1.56661943e-01f, 3.92232016e-02f, 1.20692030e-01f, -7.97355473e-02f, 2.16830354e-02f, -1.37280405e-01f},
  {7.75674591e-03f, 8.10083970e-02f, -1.07885420e-01f, -2.06446663e-01f, 1.54902712e-01f, 1.09104641e-01f, -1.21985435e-01f, -1.00672759e-01f, -4.25095893e-02f, 1.22891746e-01f, 2.20683217e-01f, 1.36090554e-02f, -4.02896181e-02f, 1.26302227e-01f, 3.53919752e-02f, 1.16418563e-01f, 1.75365377e-02f, 5.25991358e-02f, 1.50417984e-01f, -5.40552698e-02f, -2.42466480e-02f, -9.52252075e-02f, 8.27683657e-02f, -1.31492555e-01f, -8.35383609e-02f, -2.74668783e-02f, -3.44599341e-03f, 1.82813052e-02f, 6.52998313e-02f, 1.96629036e-02f, 5.55480197e-02f, -4.43234295e-02f, -6.63425997e-02f, -1.26691625e-01f, -5.04132435e-02f, 4.87880490e-04f, 1.79236293e-01f, -4.78156097e-02f, 1.16846271e-01f, -1.42069459e-02f, 1.87953264e-02f, -5.23756444e-02f, 6.19640900e-03f, -1.66108519e-01f, 1.29652530e-01f, -1.38398036e-01f, -5.93104102e-02f, 1.26203150e-01f, 7.67119527e-02f, 7.40141049e-03f, -1.49906650e-01f, -1.70994893e-01f, 1.07456818e-01f, -5.35825193e-02f, -1.24343380e-01f, -1.98857058e-02f, -3.32738571e-02f, -1.05192423e-01f, 1.27863258e-01f, 9.85011235e-02f, -1.16640650e-01f, 8.87605771e-02f, -1.24738030e-01f, 3.54865901e-02f},
  {6.11032806e-02f, -1.03759646e-01f, 3.83491181e-02f, 1.02089465e-01f, -8.18038583e-02f, 1.68126762e-01f, -6.58146814e-02f, 4.10682075e-02f, 1.55509785e-01f, 1.23549744e-01f, 3.85417677e-02f, -9.41167921e-02f, 3.93991359e-02f, -6.85088634e-02f, -8.33344460e-02f, 2.19079573e-02f, 9.05159041e-02f, 7.72566050e-02f, 1.16080597e-01f, 1.89853087e-01f, -1.47654727e-01f, -4.89257090e-02f, 1.69932574e-01f, 1.77189142e-01f, -6.47508726e-02f, 7.15609789e-02f, 1.62590221e-01f, 9.94501710e-02f, 5.72286472e-02f, 5.55949137e-02f, 7.91076794e-02f, 1.07595116e-01f, -4.11381386e-02f, -4.01431136e-02f, 5.10413051e-02f, -1.06607728e-01f, 4.25184742e-02f, -7.04533085e-02f, -2.13476233e-02f, 1.14224441e-01f, -7.81905130e-02f, -2.34065428e-02f, -1.72638118e-01f, 8.35617855e-02f, -6.88666804e-03f, -9.97786596e-03f, 5.86854247e-03f, -6.04915619e-02f, -1.44326061e-01f, 2.78462376e-02f, 8.26413371e-03f, 1.51299432e-01f, 1.41042411e-01f, -8.05061311e-02f, -3.38457040e-02f, -4.99454923e-02f, 1.86531827e-01f, -3.48020680e-02f, 5.36313001e-03f, 2.95885298e-02f, 4.11226228e-02f, -2.44817417e-02f, 1.88384756e-01f, 4.47155833e-02f},
  {-3.87439802e-02f, -1.40720874e-01f, 9.11741629e-02f, -2.15199128e-01f, -2.75125682e-01f, 4.72849570e-02f, 1.07572250e-01f, 9.22258124e-02f, -3.21613550e-01f, -1.90815821e-01f, 7.30274431e-03f, -3.84044088e-02f, 6.20757863e-02f, 1.65932745e-01f, 8.20759609e-02f, 7.71920979e-02f, -1.33816361e-01f, 1.26527339e-01f, -1.64517999e-01f, -1.12173989e-01f, -6.60326257e-02f, 2.15875864e-01f, -2.70126522e-01f, 1.14412166e-01f, -3.06642652e-01f, 2.69382089e-01f, 1.52407624e-02f, 5.55795431e-02f, -2.50147671e-01f, 4.08562087e-02f, 1.17228433e-01f, 2.88343430e-01f, 1.30652517e-01f, 1.04010716e-01f, -1.63320020e-01f, -1.02438323e-01f, -3.11205268e-01f, 7.22986758e-02f, 1.01749860e-01f, 8.73719752e-02f, 1.11034438e-02f, -1.96926609e-01f, 5.80724813e-02f, -2.70472407e-01f, -1.76539943e-01f, 1.71686783e-01f, -2.86164075e-01f, 1.98127791e-01f, 1.24055207e-01f, -1.40702635e-01f, -2.08026558e-01f, -1.48052335e-01f, -1.97952613e-01f, 7.38417804e-02f, 1.51849106e-01f, 2.00839758e-01f, -7.55681843e-02f, 6.23305961e-02f, -2.19881937e-01f, -2.64696091e-01f, 9.51807052e-02f, -1.19091675e-01f, -8.00182223e-02f, -2.38633971e-03f},
  {-2.20120192e-01f, 3.33365649e-02f, -1.35151997e-01f, 3.13254088e-01f, -3.33046950e-02f, 4.85726632e-03f, -1.50502115e-01f, 2.83266455e-01f, 5.28155565e-01f, 2.13042554e-02f, -1.06184855e-01f, -1.56968236e-01f, -5.15756123e-02f, 2.40883827e-02f, -2.26922661e-01f, -1.20236211e-01f, 3.13759238e-01f, 1.11269467e-01f, 2.10876524e-01f, 2.22580180e-01f, -7.31448457e-02f, -8.17731246e-02f, -6.17172979e-02f, 2.76063859e-01f, 1.50544494e-01f, 1.14354014e-01f, -7.11680353e-02f, 2.15089507e-02f, 1.81456551e-01f, -3.13978195e-02f, -6.57305196e-02f, 8.79458431e-03f, 1.28052756e-02f, 2.94425577e-01f, 8.52489695e-02f, 1.99889034e-01f, 1.93288222e-01f, -1.45961314e-01f, -3.13602597e-01f, 1.68449506e-01f, -2.21540689e-01f, 2.36130450e-02f, -8.15860853e-02f, 2.98745483e-01f, -1.11669056e-01f, 1.16180547e-01f, 7.67305270e-02f, -2.97763139e-01f, -3.12297791e-01f, -1.67635217e-01f, 8.22371468e-02f, 5.49404502e-01f, 3.15216929e-02f, -4.62098494e-02f, -1.33149758e-01f, -3.90702158e-01f, -4.27059792e-02f, 4.30553406e-01f, 9.14489925e-02f, -2.59605765e-01f, 1.40697852e-01f, 9.74762887e-02f, 4.41042155e-01f, 3.89755338e-01f},
  {1.11996140e-02f, -1.74845364e-02f, 1.08164512e-01f, -1.76825285e-01f, 6.93167597e-02f, 1.38847888e-01f, 8.45390745e-03f, -4.33908924e-02f, -2.10097581e-01f, 8.22548270e-02f, 1.49684340e-01f, 1.37081906e-01f, -3.46555620e-01f, -3.77612323e-01f, -2.29669169e-01f, 1.36754394e-01f, -2.76178867e-01f, -2.54545599e-01f, 1.69811293e-01f, -1.21116154e-01f, 5.65111101e-01f, -9.19463858e-02f, -2.20983643e-02f, -3.58417392e-01f, 7.03954875e-01f, -1.48036212e-01f, 2.54146270e-02f, -6.18831396e-01f, 1.71694681e-01f, 2.34457612e-01f, -2.64399856e-01f, -1.51431248e-01f, -2.30293255e-03f, -1.20530196e-01f, -1.89711768e-02f, 8.50431696e-02f, -3.88161801e-02f, -1.40976772e-01f, 2.98288554e-01f, -2.54681617e-01f, 1.23770416e-01f, 2.37375423e-02f, 1.96154460e-01f, 2.16947168e-01f, 4.76790480e-02f, -2.88485557e-01f, 1.37131020e-01f, -3.59596871e-02f, -1.70896322e-01f, 1.76176101e-01f, 1.95398405e-01f, 1.93951577e-01f, 1.61856428e-01f, 8.92343894e-02f, -3.76168615e-03f, -1.40438482e-01f, -2.89154857e-01f, -7.23907677e-03f, 2.38326311e-01f, 1.37068346e-01f, -2.16616169e-01f, 2.68981487e-01f, -1.97418138e-01f, -1.57420754e-01f},
  {-1.65221646e-01f, -9.35429428e-03f, 1.05095752e-01f, -7.91074112e-02f, -1.93064138e-01f, -3.53616983e-01f, 5.27487844e-02f, -9.01412591e-03f, 1.74987510e-01f, -2.20691949e-01f, -1.35517195e-01f, -1.06560431e-01f, -9.10215080e-02f, 3.16520721e-01f, -1.36925597e-02f, 1.88466787e-01f, -1.67443216e-01f, 2.62399882e-01f, -2.99888432e-01f, -1.00194484e-01f, -2.46968448e-01f, 4.87805121e-02f, -1.53445646e-01f, 5.21868542e-02f, -3.41724277e-01f, 3.14663231e-01f, 1.85882017e-01f, 3.36797684e-01f, -6.72438890e-02f, -2.40551531e-01f, 1.37080655e-01f, 2.32874185e-01f, 1.61822706e-01f, 7.04196468e-02f, -1.46191299e-01f, -2.84854650e-01f, -1.22045226e-01f, 2.07572281e-01f, -2.52553850e-01f, 1.62005126e-02f, 4.77868207e-02f, 7.98482224e-02f, -8.06640983e-02f, 4.26126942e-02f, -3.75852697e-02f, 2.49600917e-01f, -1.26306832e-01f, 2.48271346e-01f, 7.38944113e-02f, -8.14450532e-02f, -1.61345005e-02f, -2.08821848e-01f, -2.20370531e-01f, 1.26319066e-01f, 8.62217247e-02f, 7.12041780e-02f, 2.23069623e-01f, 1.12366378e-02f, -2.78788090e-01f, -1.56924129e-01f, 1.57926515e-01f, -2.90267497e-01f, 1.22916885e-01f, 9.41529721e-02f},
  {8.24795216e-02f, -3.18833619e-01f, 3.30261290e-01f, -2.71451324e-01f, -1.64518774e-01f, 5.75459674e-02f, 1.53499812e-01f, -2.67616719e-01f, -2.20453531e-01f, -3.95903662e-02f, -2.57772692e-02f, 2.35037357e-01f, -2.25565135e-02f, -1.76490307e-01f, 9.65561941e-02f, 1.09429471e-01f, -2.21930489e-01f, -1.66959316e-01f, -8.73128623e-02f, -1.75371215e-01f, 8.26774016e-02f, 1.18058406e-01f, -1.51984647e-01f, -1.74128383e-01f, -1.26231700e-01f, 1.91152040e-02f, -1.74015183e-02f, 6.91772103e-02f, -1.39293909e-01f, 8.27046409e-02f, 1.94532752e-01f, 8.96031857e-02f, 1.22320667e-01f, 1.06956102e-01f, -2.61713952e-01f, -2.92564239e-02f, -1.84643045e-01f, -1.60868727e-02f, 5.69614209e-02f, 2.64438819e-02f, 3.56108606e-01f, -6.65575359e-03f, 1.35033563e-01f, -1.70557931e-01f, -9.75345150e-02f, 8.22216645e-02f, -2.53269106e-01f, 3.81168574e-01f, 1.22630388e-01f, -2.27934103e-02f, -1.16845481e-01f, -1.24830976e-01f, 6.55131936e-02f, 1.23083197e-01f, 3.66982847e-01f, 2.11771563e-01f, -7.63012692e-02f, -1.61048979e-01f, -1.94232821e-01f, -1.75720572e-01f, -1.39429104e-02f, -1.46931875e-02f, -1.07808396e-01f, -1.17050275e-01f},
  {1.84664741e-01f, -1.41060755e-01f, 4.38712537e-02f, 1.26323598e-02f, 7.80957490e-02f, -1.15930818e-01f, 1.30394697e-01f, -4.48028207e-01f, 3.86666417e-01f, 2.55190939e-01f, 4.95657176e-02f, 2.47979537e-01f, -7.65205741e-01f, -7.47693181e-01f, -3.13667655e-01f, 2.59017497e-01f, -4.80751812e-01f, -2.49359801e-01f, 1.45552814e-01f, -2.84934193e-02f, 3.11143488e-01f, 1.08260244e-01f, -2.99997658e-01f, -5.14570177e-01f, 9.48944330e-01f, -1.20685883e-01f, -3.11272204e-01f, -6.38975680e-01f, 1.33577809e-01f, 2.56497204e-01f, -2.38468572e-01f, -4.48209308e-02f, -2.85076723e-02f, -2.04377815e-01f, 1.27816767e-01f, 2.64762074e-01f, -3.20231505e-02f, -3.39745075e-01f, 7.38795042e-01f, -1.37525797e-01f, 9.83098373e-02f, 1.58733755e-01f, 5.22560894e-01f, 1.51555419e-01f, 1.64759547e-01f, -1.59627110e-01f, 1.46685252e-02f, -9.57694873e-02f, -1.73560068e-01f, 2.72629321e-01f, 2.27323607e-01f, 5.81912398e-01f, 1.05101921e-01f, -1.20224439e-01f, 1.37061492e-01f, 6.47230148e-02f, -2.68164545e-01f, -1.22608870e-01f, 1.17915303e-01f, 1.79877967e-01f, -3.39070499e-01f, 1.77715123e-01f, -1.10472515e-01f, -3.36431026e-01f},
  {-1.40707985e-01f, -3.61032039e-02f, 1.66395344e-02f, -7.39319324e-02f, 1.42056001e-02f, -3.28205936e-02f, -1.01815030e-01f, -7.55712241e-02f, 3.74233648e-02f, -8.00351147e-03f, -7.88448751e-02f, 2.07493678e-02f, -5.66373020e-02f, -7.54006803e-02f, 2.43244786e-02f, -9.93390847e-03f, -2.71697268e-02f, 6.56022429e-02f, -1.52878556e-03f, -3.62165682e-02f, -3.19190696e-02f, 1.02577344e-01f, -2.43391916e-01f, -1.69553235e-02f, 1.33081004e-01f, -2.22195424e-02f, -7.03584403e-02f, -2.90742368e-01f, 8.78226385e-02f, -4.82542031e-02f, 1.22219466e-01f, -4.21477817e-02f, 1.61327678e-03f, 1.28843591e-01f, -5.46493083e-02f, -2.40440015e-02f, -1.80995837e-02f, -5.84485345e-02f, 4.94649895e-02f, -7.80327842e-02f, 1.35286152e-01f, 1.32187590e-01f, 1.09251350e-01f, 2.21651699e-02f, -4.92743626e-02f, 3.02853975e-02f, -8.97494983e-03f, -4.62663872e-03f, -3.30845593e-04f, 1.22772329e-01f, 1.19570799e-01f, 1.73053122e-05f, -5.81320338e-02f, -6.84250370e-02f, 9.90396589e-02f, 1.20493665e-03f, -1.37726635e-01f, -1.11132652e-01f, 9.91734397e-03f, 4.19505760e-02f, -2.29925215e-01f, 1.02374353e-01f, -8.11117068e-02f, -1.58136964e-01f},
  {3.17959785e-02f, 4.54043262e-02f, 1.51155517e-01f, 3.53761576e-02f, -1.62310332e-01f, -3.46004814e-02f, -6.70258775e-02f, 3.17512639e-02f, 2.24227369e-01f, -7.69188553e-02f, -2.83035219e-01f, -6.85617030e-02f, -1.34043887e-01f, 1.92859188e-01f, 9.09233391e-02f, -3.70539017e-02f, 2.12138239e-03f, 1.94953680e-01f, -8.54461342e-02f, 1.07296914e-01f, -1.73311085e-01f, 1.48971662e-01f, -1.23552769e-01f, 1.56798884e-01f, -3.14882576e-01f, 3.18049163e-01f, 2.13358909e-01f, 1.46052614e-01f, -2.87972063e-01f, -2.64183044e-01f, 1.14497341e-01f, 1.34357035e-01f, 1.87649712e-01f, 1.21948563e-01f, -3.13834026e-02f, -1.21753067e-02f, -2.51640528e-01f, 4.06492017e-02f, -7.80843198e-02f, 2.11315230e-01f, -8.49310234e-02f, -7.29882196e-02f, -1.98850751e-01f, 1.72377214e-01f, -6.89937696e-02f, 1.70010030e-01f, -7.08664581e-02f, 8.69113952e-02f, -1.32405788e-01f, 1.27625968e-02f, -1.98237583e-01f, 4.15422134e-02f, -2.46640608e-01f, -1.02650076e-01f, 1.21248297e-01f, -3.39913145e-02f, 5.01689687e-02f, 1.64542310e-02f, -2.10898966e-01f, -7.40259960e-02f, 1.96631029e-01f, -2.14024588e-01f, 2.73711473e-01f, 1.28334031e-01f},
  {-9.52317119e-02f, -2.61538438e-02f, 4.08239737e-02f, -4.42610756e-02f, 4.11703959e-02f, 4.17246446e-02f, -1.19490549e-02f, 3.67448740e-02f, -1.82444498e-01f, 2.08531424e-01f, 6.80449530e-02f, 4.78353165e-02f, -5.85242324e-02f, -9.37938169e-02f, 1.19059026e-01f, -4.36193123e-02f, 8.79507214e-02f, -8.17209259e-02f, 7.59665519e-02f, -4.24256697e-02f, 1.20015457e-01f, -1.45034999e-01f, 1.43239115e-04f, 8.07608366e-02f, -2.01113969e-02f, -3.78208831e-02f, 7.59608671e-02f, -5.93635440e-03f, 1.36674836e-03f, 7.71286339e-02f, -1.68947000e-02f, 1.18771002e-01f, -2.84411591e-02f, 6.15337081e-02f, -1.28943007e-02f, -4.57923301e-02f, 1.24206617e-01f, 5.90436645e-02f, 1.63712010e-01f, -1.35209262e-01f, 3.11904885e-02f, -1.08517453e-01f, 1.04803413e-01f, 9.59277973e-02f, -3.31427939e-02f, -9.32212025e-02f, 1.11466266e-01f, 1.20516069e-01f, -7.48163089e-02f, 1.83709860e-01f, 1.17786713e-01f, -1.07093677e-01f, 7.32545257e-02f, 9.75846276e-02f, 7.90471882e-02f, -6.43708557e-03f, -1.85379863e-01f, -2.18260109e-01f, 7.58519471e-02f, -9.04046670e-02f, -7.71771476e-04f, -1.06854513e-02f, 1.23698443e-01f, -1.04131885e-01f},
  {-9.42810923e-02f, 1.19621098e-01f, 3.63485180e-02f, 1.37276202e-01f, 7.74170160e-02f, 9.09997597e-02f, -7.16563240e-02f, -1.00236712e-02f, -7.04117119e-02f, 8.10251012e-02f, 2.50172019e-01f, -1.91504378e-02f, 2.10669249e-01f, -7.51821697e-02f, -1.31995380e-01f, -2.28378788e-01f, 9.15168822e-02f, -7.85479173e-02f, 1.84008274e-02f, 2.11470068e-01f, 2.69584537e-01f, -2.38849610e-01f, 1.80255711e-01f, -1.88023046e-01f, 1.78127751e-01f, -1.15131192e-01f, -1.02946818e-01f, -1.41960636e-01f, 2.15939805e-01f, 1.99552730e-01f, -3.29717770e-02f, -1.90015361e-01f, -6.72010332e-02f, -2.87273675e-01f, 7.43439123e-02f, 7.98841044e-02f, 1.35368779e-01f, -2.80056894e-01f, 3.75998579e-02f, -1.42316669e-01f, -1.16116561e-01f, 9.22679380e-02f, 7.72345364e-02f, -8.02448839e-02f, 7.04543740e-02f, -2.84825355e-01f, 5.56335151e-02f, -1.73769549e-01f, -2.11172536e-01f, -3.63477282e-02f, 2.11334020e-01f, 1.58144295e-01f, 2.66427964e-01f, 1.29394993e-01f, -1.23336434e-01f, -1.48142934e-01f, -9.30393040e-02f, -4.33439389e-02f, 1.99454382e-01f, 1.83572218e-01f, -1.53959975e-01f, 9.98870358e-02f, -2.04690889e-01f, -2.24157097e-03f},
  {1.42592967e-01f, 3.07978932e-02f, 3.86723913e-02f, -1.30956322e-01f, -8.69357809e-02f, -5.27692735e-02f, 5.15697636e-02f, -1.83747202e-01f, 1.43468425e-01f, -1.69161692e-01f, -1.83319569e-01f, 1.57284826e-01f, -1.76717550e-01f, -4.87487204e-02f, -4.66728136e-02f, 2.62347400e-01f, -1.72740638e-01f, 1.48817495e-01f, -3.96780111e-03f, -1.93273835e-02f, -2.79945303e-02f, 6.40875995e-02f, -7.94733167e-02f, 1.04160883e-01f, 1.12089954e-01f, 1.38887495e-01f, 3.00203040e-02f, -9.43662971e-02f, 3.01871039e-02f, 7.18948469e-02f, -9.48923975e-02f, 6.92577586e-02f, 7.65689462e-03f, -7.50635117e-02f, -3.73349003e-02f, -6.32227436e-02f, -7.82360733e-02f, -9.43809003e-02f, 7.53169358e-02f, 1.43570706e-01f, 8.13354999e-02f, 2.91956980e-02f, -9.13406909e-02f, 1.36145860e-01f, 2.64956616e-03f, 1.09511890e-01f, -4.46427148e-03f, 6.22337610e-02f, -2.40584984e-02f, 1.98743239e-01f, 7.97926337e-02f, 2.86830459e-02f, 5.87910414e-02f, 1.47708401e-01f, 9.78627652e-02f, -1.32447407e-02f, 7.19484910e-02f, -1.22695714e-01f, 6.24159351e-02f, -2.71857902e-02f, 9.33150947e-02f, 7.32566509e-03f, 3.49609703e-02f, 1.93723710e-03f}
};
constexpr float B1[64] = {1.15442656e-01f, -2.73700714e-01f, -8.26424137e-02f, 3.34246963e-01f, -9.26381946e-02f, -1.08186267e-02f, 7.15367496e-02f, -9.19248816e-03f, 9.48741511e-02f, -5.25821373e-02f, 6.83640167e-02f, -2.71707382e-02f, 6.44209608e-02f, -1.60106063e-01f, 1.94762260e-01f, -1.65199637e-01f, -3.21014345e-01f, 6.05320409e-02f, -1.81370184e-01f, -1.98207393e-01f, 1.74605191e-01f, -3.98178631e-03f, 1.64271101e-01f, 2.34411657e-01f, 4.18314666e-01f, -1.17322817e-01f, 2.40016073e-01f, -5.29203303e-02f, -4.80368175e-02f, -8.29861313e-02f, 1.39702260e-01f, 9.18535292e-02f, -1.32100388e-01f, -7.37497211e-02f, 1.76131815e-01f, -1.65571243e-01f, -6.93184286e-02f, 4.74813841e-02f, 1.91195711e-01f, -1.89449545e-02f, 2.60916948e-02f, -1.48504689e-01f, 9.68885347e-02f, 7.20615685e-02f, 7.71988481e-02f, 7.03991354e-02f, -1.57497153e-01f, -1.94949672e-01f, -2.19524890e-01f, -1.38420835e-01f, -2.10873544e-01f, -1.61853313e-01f, -2.31403336e-02f, 3.17064635e-02f, 2.04104334e-01f, -2.13686660e-01f, 1.76515862e-01f, -1.75443351e-01f, -4.18054402e-01f, -2.71991551e-01f, 5.72197065e-02f, -1.34130374e-01f, 2.04723682e-02f, 9.68027934e-02f};
constexpr float W2[6][64] = {
  {-1.46218419e-01f, 1.69122070e-01f, -2.59335607e-01f, 5.33471704e-02f, 6.99223056e-02f, -1.82103515e-01f, 3.04061085e-01f, -1.47910029e-01f, -1.15832224e-01f, -1.45134360e-01f, 1.71321824e-01f, -1.81630448e-01f, -1.52306080e-01f, -2.07305938e-01f, -1.76828131e-01f, 5.55944368e-02f, -1.55887127e-01f, 1.75027817e-01f, 4.00633454e-01f, 4.05109078e-02f, -1.05777852e-01f, -1.30026549e-01f, 1.30440548e-01f, -2.50790846e-02f, 6.19432926e-02f, -9.53009352e-02f, -1.10037915e-01f, -1.16459325e-01f, 1.32962808e-01f, -1.97202340e-01f, 1.55195132e-01f, -2.98470389e-02f, -1.06029242e-01f, -2.13994980e-01f, 1.51114359e-01f, -7.02386647e-02f, 8.61441642e-02f, -1.24468431e-01f, -2.02492535e-01f, -2.23939344e-01f, -4.66932096e-02f, -1.50306925e-01f, 2.09288299e-02f, 1.88909903e-01f, -1.10216290e-01f, 2.35367253e-01f, 2.02692077e-01f, -1.22118495e-01f, -1.63148925e-01f, -3.91036309e-02f, 2.93781161e-02f, 8.34172368e-02f, 6.26281127e-02f, 1.06665604e-01f, -1.52042940e-01f, -2.03708842e-01f, 1.38357490e-01f, -7.91300088e-02f, -1.95883796e-01f, -2.20090393e-02f, 1.89990595e-01f, 2.05993861e-01f, -1.91399157e-01f, 5.90228625e-02f},
  {1.24732286e-01f, 1.10907406e-01f, -4.03841725e-03f, 2.62976080e-01f, 1.77971229e-01f, -1.39703855e-01f, -1.42149910e-01f, -1.79925442e-01f, -2.14673311e-01f, -8.73798653e-02f, 2.31859207e-01f, 2.67301440e-01f, 1.16198920e-01f, -2.55010098e-01f, -2.43927523e-01f, 1.55474186e-01f, -1.61832422e-01f, 1.94872245e-01f, -9.98570025e-02f, 1.15866914e-01f, -2.23226756e-01f, -5.31986170e-03f, 2.28070945e-01f, 2.66205687e-02f, 2.72405833e-01f, 1.59915462e-01f, -1.29247874e-01f, -2.68926591e-01f, 1.50065288e-01f, -1.15538374e-01f, -1.19633459e-01f, 5.47372699e-02f, 2.80833721e-01f, 1.26866996e-01f, 1.72926903e-01f, 1.43385231e-01f, 1.83322951e-02f, -5.61422594e-02f, -1.62167549e-01f, -1.68783322e-01f, 1.53787404e-01f, 2.54948735e-01f, 2.19337448e-01f, 9.47608352e-02f, -4.45861220e-02f, -1.52958035e-01f, -1.56048492e-01f, -2.51496285e-01f, -2.58398354e-01f, -9.43309367e-02f, 3.47691178e-02f, 1.70479864e-01f, -2.62666464e-01f, 2.05764383e-01f, -2.97213793e-01f, -1.85284808e-01f, 1.32220969e-01f, -1.62106883e-02f, -1.18286699e-01f, 5.03251664e-02f, 9.74133983e-02f, 1.04581402e-03f, -1.95514023e-01f, 1.43589284e-02f},
  {1.05406828e-01f, -2.41543770e-01f, -2.29235321e-01f, 2.24381298e-01f, 1.32470861e-01f, -2.93165282e-03f, 8.02778546e-03f, -1.74383685e-01f, -7.57926702e-02f, -2.40876842e-02f, 8.47084448e-02f, -1.87286630e-01f, -1.84242725e-01f, -1.28929436e-01f, -1.66176856e-01f, 3.01219553e-01f, -6.77703768e-02f, 7.63427168e-02f, -3.87987774e-03f, 2.66171813e-01f, -1.61281809e-01f, -7.99686611e-02f, 1.17957897e-01f, -4.15939361e-01f, 5.35740182e-02f, -9.75833982e-02f, -3.14182907e-01f, -2.41941996e-02f, 1.95786357e-01f, -2.15452716e-01f, 1.71794295e-01f, -2.36165766e-02f, -2.15276212e-01f, 3.60847674e-02f, 2.60631870e-02f, -2.09400937e-01f, 5.36277369e-02f, 5.34331091e-02f, -2.41230726e-01f, -2.81485403e-03f, 1.34191871e-01f, -7.37643167e-02f, 1.19987652e-01f, -9.03844237e-02f, -9.90812480e-02f, 1.75714344e-01f, -2.95415390e-02f, -1.54756950e-02f, -5.85225634e-02f, -1.45568281e-01f, 2.16278061e-01f, -7.39118606e-02f, 2.07456559e-01f, 1.85532361e-01f, -1.43203646e-01f, -1.06478974e-01f, 6.48786575e-02f, 2.13814318e-01f, -2.11931482e-01f, -1.90815091e-01f, -1.93794146e-01f, -1.39441609e-01f, 3.40265073e-02f, 1.77414358e-01f},
  {1.36040702e-01f, -5.15169241e-02f, 1.76857430e-02f, -1.35887370e-01f, -3.77606973e-02f, -2.78625195e-03f, 1.37479275e-01f, 1.50411338e-01f, 5.24006523e-02f, 1.17651634e-01f, -1.70687303e-01f, -2.02609524e-01f, 4.15901169e-02f, -8.27735104e-03f, 7.97496215e-02f, -7.31444359e-02f, 1.71692684e-01f, 1.55158704e-02f, 3.91929224e-03f, -2.69946791e-02f, 3.33538465e-02f, 1.64314747e-01f, -7.59395808e-02f, -8.95873830e-03f, -1.11752965e-01f, 9.13101807e-02f, 1.57396108e-01f, -8.97201076e-02f, -5.22498712e-02f, -1.74361750e-01f, 2.30303481e-01f, 2.04699844e-01f, -7.11253425e-03f, -2.96840444e-03f, -2.45039575e-02f, -1.59025192e-01f, -6.47741929e-02f, -7.98629411e-03f, 6.55590817e-02f, 1.25190362e-01f, -2.53726039e-02f, 8.03321004e-02f, -6.90296888e-02f, -3.23169082e-02f, 9.60694477e-02f, -1.31321773e-01f, 1.61663249e-01f, -4.45273146e-02f, -1.20377928e-01f, -6.29475191e-02f, -2.28696596e-02f, 1.15970567e-01f, 1.12600483e-01f, -6.47995323e-02f, 1.32778347e-01f, 1.48341551e-01f, -2.04272464e-01f, 2.23832740e-03f, 7.69065022e-02f, -1.15314536e-01f, -2.44119987e-01f, 7.74679855e-02f, 1.89269871e-01f, -1.64673030e-01f},
  {3.00163835e-01f, -1.99894439e-02f, 6.05188087e-02f, -2.13598549e-01f, -2.27740798e-02f, -4.71265875e-02f, 3.64585668e-02f, 1.22733921e-01f, 1.56167164e-01f, 4.85304892e-02f, -2.25681737e-01f, -8.60245004e-02f, 1.55928224e-01f, 8.60419031e-03f, 2.05997854e-01f, -8.88820142e-02f, 1.14015780e-01f, 6.67324802e-03f, 4.49763872e-02f, -1.25491545e-01f, 3.84942219e-02f, 2.14617312e-01f, -1.78074211e-01f, -3.11016589e-02f, -1.50189415e-01f, 5.39681613e-02f, 1.00245081e-01f, -6.03318922e-02f, -4.95214872e-02f, -2.00806960e-01f, 1.88733399e-01f, 1.43690884e-01f, 2.54055783e-02f, -1.39883995e-01f, -1.08176805e-01f, 4.99617457e-02f, -1.46046996e-01f, -1.76933244e-01f, 1.14810944e-01f, 1.39208809e-01f, -1.39268935e-01f, 3.05479430e-02f, -1.06340639e-01f, 1.03771025e-02f, 1.93560738e-02f, -7.26116821e-02f, 1.49197713e-01f, -1.08093344e-01f, -8.21227282e-02f, -1.79311797e-01f, -1.00885890e-02f, 1.80712834e-01f, 1.26995817e-01f, -4.01052460e-02f, 1.50543705e-01f, 8.64752755e-02f, -1.34549797e-01f, 4.94214371e-02f, 1.17363803e-01f, -2.28513017e-01f, -1.92851529e-01f, 1.20203756e-01f, 1.59600884e-01f, -1.36970326e-01f},
  {-1.02304287e-01f, -1.01545557e-01f, -4.52247150e-02f, -1.12692729e-01f, 1.25470851e-02f, -1.98056027e-02f, -2.31651403e-02f, 1.80460051e-01f, 1.99132726e-01f, 2.81831861e-01f, -3.17056826e-03f, -9.37945396e-02f, 8.79385695e-02f, -2.10612401e-01f, 8.10128450e-03f, -2.93990057e-02f, 2.27028921e-01f, -2.42682770e-01f, -8.46076682e-02f, -1.73983261e-01f, 1.53869286e-01f, 1.86449111e-01f, -3.96529138e-01f, 6.53679743e-02f, -2.75319159e-01f, 1.12627842e-01f, -7.43990690e-02f, -1.81778818e-01f, -4.25052866e-02f, 3.38579342e-02f, -1.33445978e-01f, 1.81009755e-01f, 2.27835923e-02f, -3.52596082e-02f, -2.70548671e-01f, -1.56775162e-01f, 1.76830202e-01f, -7.64442235e-02f, 6.83073401e-02f, 7.52650350e-02f, -1.93431899e-01f, -1.25911355e-01f, -1.57253668e-01f, 1.10358298e-01f, 9.54180434e-02f, -3.10455617e-02f, -6.89582005e-02f, -2.76358485e-01f, 6.04339205e-02f, -1.88035965e-01f, -1.89740896e-01f, -1.73726752e-01f, 2.55041197e-02f, -1.98203847e-01f, 1.19006246e-01f, 1.85335994e-01f, -5.98816350e-02f, -1.90399379e-01f, 3.14346790e-01f, -5.43756783e-02f, 1.89286396e-02f, -3.65120284e-02f, 1.06532842e-01f, -1.60618886e-01f}
};
constexpr float B2[6] = {6.50726557e-02f, 6.24280646e-02f, 1.73177555e-01f, -3.00351549e-02f, 2.02553160e-02f, 3.45837735e-02f};
}  // namespace synfuel
